{"learner":{"attributes":{"best_iteration":"8","best_score":"0.6553029077853608"},"feature_names":[],"feature_types":[],"gradient_booster":{"model":{"gbtree_model_param":{"num_parallel_tree":"1","num_trees":"19"},"iteration_indptr":[0,1,2,3,4,5,6,7,8,9,10,11,12,13,14,15,16,17,18,19],"tree_info":[0,0,0,0,0,0,0,0,0,0,0,0,0,0,0,0,0,0,0],"trees":[{"base_weights":[4.7655117E-8,-5.9515417E-1,5.6850195E-1,-8.227166E-1,-3.2579568E-1,1.3652085E-1,1.2500229E0,-8.457078E-1,2.63651E-1,-6.0727775E-1,3.7082274E-2,7.5542636E-2,2.257905E0,9.3457824E-1,2.2460983E0,-8.599417E-1,8.789949E-2,1.941316E-1,-6.4843994E-1,-1.1438347E-1,1.2596252E0,-1.6326632E-1,3.4847072E-1,8.789949E-2,9.0004176E-1,7.6511335E-1,2.436272E0,7.304448E-1,3.0787945E0,-1.0187217E0,-7.1858543E-1,-7.010236E-1,3.8127488E-1,6.4712894E-1,-2.566833E-1,-1.8993664E-1,1.9971112E0,-2.9989427E-1,8.434726E-1,-1.2760296E-1,7.192041E-1,6.187161E-1,2.1995702E0,2.759927E0,1.941316E-1,1.3923045E0,-8.563712E-2,7.5774646E-1,1.0468371E0,-3.1040516E-1,-6.806206E-2,-2.2291745E-1,1.1591929E-1,3.764922E-2,-2.3001143E-1,3.657356E-1,-1.8993664E-1,-1.8993664E-1,3.0944994E-1,-1.3495225E-1,1.2754636E-1,7.8788805E-1,8.789949E-2,-1.13699816E-1,3.8554087E-1,8.7134E-2,5.457594E-1,2.5272065E-1,-1.10714875E-1,5.090335E-1,1.4396536E-1,3.2428378E-1,9.4000705E-2,1.1591929E-1,7.6211405E-1,3.3927324E-1,9.6697706E-1,5.579003E-2,6.757344E-1,2.2711952E-1,-2.3819157E-1,4.1138276E-1,-5.1018573E-2],"categories":[],"categories_nodes":[],"categories_segments":[],"categories_sizes":[],"default_left":[0,0,0,0,0,0,0,0,0,0,0,0,0,0,0,0,0,0,0,0,0,0,0,0,0,0,0,0,0,0,0,0,0,0,0,0,0,0,0,0,0,0,0,0,0,0,0,0,0,0,0,0,0,0,0,0,0,0,0,0,0,0,0,0,0,0,0,0,0,0,0,0,0,0,0,0,0,0,0,0,0,0,0],"id":0,"left_children":[1,3,5,7,9,11,13,15,-1,17,19,21,23,25,27,29,-1,-1,31,33,35,37,39,-1,-1,41,43,45,47,49,51,53,55,57,59,-1,61,63,65,67,69,71,73,75,-1,77,79,81,-1,-1,-1,-1,-1,-1,-1,-1,-1,-1,-1,-1,-1,-1,-1,-1,-1,-1,-1,-1,-1,-1,-1,-1,-1,-1,-1,-1,-1,-1,-1,-1,-1,-1,-1],"loss_changes":[1.4845369E2,1.2871132E1,6.58954E1,5.263138E0,1.02184105E1,1.7741755E1,2.5216476E1,2.1079254E0,0E0,3.3250923E0,8.393076E0,8.897348E0,4.7132015E0,1.5374329E1,2.3241234E1,1.8119888E0,0E0,0E0,3.244419E0,4.5606008E0,8.235404E0,1.0296858E1,1.1319681E1,0E0,0E0,1.1727818E1,1.9265976E0,4.695572E0,9.484268E0,4.0973663E-1,2.0004349E0,2.9551964E0,3.5927684E0,3.9347692E0,4.785617E0,0E0,3.3417854E0,8.64113E0,4.3215504E0,7.0326214E0,7.5882072E0,7.840811E0,2.3432713E0,2.2135544E-1,0E0,4.495632E0,3.4282684E0,2.0492148E0,0E0,0E0,0E0,0E0,0E0,0E0,0E0,0E0,0E0,0E0,0E0,0E0,0E0,0E0,0E0,0E0,0E0,0E0,0E0,0E0,0E0,0E0,0E0,0E0,0E0,0E0,0E0,0E0,0E0,0E0,0E0,0E0,0E0,0E0,0E0],"parents":[2147483647,0,0,1,1,2,2,3,3,4,4,5,5,6,6,7,7,9,9,10,10,11,11,12,12,13,13,14,14,15,15,18,18,19,19,20,20,21,21,22,22,25,25,26,26,27,27,28,28,29,29,30,30,31,31,32,32,33,33,34,34,36,36,37,37,38,38,39,39,40,40,41,41,42,42,43,43,45,45,46,46,47,47],"right_children":[2,4,6,8,10,12,14,16,-1,18,20,22,24,26,28,30,-1,-1,32,34,36,38,40,-1,-1,42,44,46,48,50,52,54,56,58,60,-1,62,64,66,68,70,72,74,76,-1,78,80,82,-1,-1,-1,-1,-1,-1,-1,-1,-1,-1,-1,-1,-1,-1,-1,-1,-1,-1,-1,-1,-1,-1,-1,-1,-1,-1,-1,-1,-1,-1,-1,-1,-1,-1,-1],"split_conditions":[-6.8245895E-2,8.8943675E-2,4.8320186E-1,2.2076921E0,-1.05804235E-1,1.8981442E0,1.7297027E-1,1.6357063E0,2.63651E-1,-1.4037795E0,1.1844832E0,1.1531919E0,1.1531919E0,2.684196E0,-2.4509896E-1,-8.8493925E-1,8.789949E-2,1.941316E-1,8.235618E-1,-6.3875586E-1,4.416952E-2,1.091279E0,-4.244246E-1,8.789949E-2,9.0004176E-1,2.0065591E0,1.0563151E0,1.4980607E-1,2.8176555E-1,1.4509778E0,2.5051455E0,-1.5035287E0,9.249418E-1,-6.559797E-1,3.2351658E-1,-1.8993664E-1,1.8142354E0,1.7933142E0,1.7297027E-1,-7.567029E-1,-6.208068E-1,2.9568115E-2,-2.863007E-1,1.3317999E0,1.941316E-1,8.651179E-1,7.4692234E-2,-6.0680117E-2,1.0468371E0,-3.1040516E-1,-6.806206E-2,-2.2291745E-1,1.1591929E-1,3.764922E-2,-2.3001143E-1,3.657356E-1,-1.8993664E-1,-1.8993664E-1,3.0944994E-1,-1.3495225E-1,1.2754636E-1,7.8788805E-1,8.789949E-2,-1.13699816E-1,3.8554087E-1,8.7134E-2,5.457594E-1,2.5272065E-1,-1.10714875E-1,5.090335E-1,1.4396536E-1,3.2428378E-1,9.4000705E-2,1.1591929E-1,7.6211405E-1,3.3927324E-1,9.6697706E-1,5.579003E-2,6.757344E-1,2.2711952E-1,-2.3819157E-1,4.1138276E-1,-5.1018573E-2],"split_indices":[1,4,10,10,9,14,4,14,0,13,11,0,0,10,14,1,0,0,10,14,12,13,10,0,0,2,12,12,1,9,13,12,13,12,14,0,11,12,4,12,11,9,9,1,0,1,9,9,0,0,0,0,0,0,0,0,0,0,0,0,0,0,0,0,0,0,0,0,0,0,0,0,0,0,0,0,0,0,0,0,0,0,0],"split_type":[0,0,0,0,0,0,0,0,0,0,0,0,0,0,0,0,0,0,0,0,0,0,0,0,0,0,0,0,0,0,0,0,0,0,0,0,0,0,0,0,0,0,0,0,0,0,0,0,0,0,0,0,0,0,0,0,0,0,0,0,0,0,0,0,0,0,0,0,0,0,0,0,0,0,0,0,0,0,0,0,0,0,0],"sum_hessian":[4.3676254E2,2.1335657E2,2.2340598E2,1.1453744E2,9.881914E1,1.3747069E2,8.593529E1,1.1350673E2,1.0307081E0,5.527172E1,4.3547417E1,1.3463625E2,2.8344471E0,6.673835E1,1.9196938E1,1.1234718E2,1.1595466E0,1.2883852E0,5.3983334E1,3.955342E1,3.9939938E0,7.202073E1,6.2615517E1,1.1595466E0,1.6749007E0,6.132713E1,5.411217E0,7.4726334E0,1.1724304E1,4.998934E1,6.2357838E1,5.166424E1,2.3190932E0,5.6688943E0,3.388453E1,1.1595466E0,2.8344471E0,6.403274E1,7.9879875E0,2.770028E1,3.4915237E1,5.694662E1,4.3805094E0,4.1228323E0,1.2883852E0,3.7363167E0,3.7363167E0,2.1902547E0,9.53405E0,4.870096E1,1.2883852E0,6.132713E1,1.0307081E0,3.7363167E0,4.7927925E1,1.1595466E0,1.1595466E0,1.1595466E0,4.509348E0,2.666957E1,7.2149563E0,1.6749007E0,1.1595466E0,6.1713646E1,2.3190932E0,5.9265714E0,2.0614161E0,5.024702E0,2.2675577E1,5.6688943E0,2.9246342E1,2.1644869E1,3.530175E1,1.0307081E0,3.3498013E0,1.6749007E0,2.4479318E0,2.0614161E0,1.6749007E0,1.6749007E0,2.0614161E0,1.0307081E0,1.1595466E0],"tree_param":{"num_deleted":"0","num_feature":"15","num_nodes":"83","size_leaf_vector":"1"}},{"base_weights":[-1.0932686E-2,-5.688857E-1,3.151717E-1,-7.715893E-1,-3.5405475E-1,1.7686222E-1,1.1192293E0,-7.9062593E-1,9.900495E-2,-5.9321856E-1,-6.9140494E-2,1.05397314E-1,1.1580487E0,8.118399E-1,1.6748531E0,-8.099129E-1,1.0168753E-1,-6.918319E-1,4.6143454E-2,-6.3292253E-1,1.6716291E-1,-1.1515385E-1,3.5969356E-1,8.420126E-1,8.5378075E-1,4.913962E-1,1.469455E0,-3.0174866E-1,2.1192663E0,-9.341508E-1,-6.6080976E-1,1.003036E-1,-8.0881536E-1,3.7036806E-1,-5.539594E-1,2.851567E-1,-9.6095735E-1,-8.1779313E-1,4.371141E-1,-1.6906849E-1,1.3086803E0,2.4826343E-1,1.2704499E0,-1.9286372E-1,1.0236235E0,-5.70909E-1,6.6513866E-1,1.7322742E0,1.223452E-1,9.692626E-2,-2.1645536E-1,1.2090003E0,8.6902225E-1,-1.5284002E-1,-2.96252E-1,-2.8916186E-2,-2.1591355E-1,-1.3709113E-1,3.69047E-1,-6.946247E-2,-2.8437027E-1,2.1982735E-2,-2.531544E-1,-3.1327236E-1,-4.981885E-2,-2.8150514E-1,-3.997355E-2,-1.4241971E-1,1.9019465E-1,2.8020587E-2,-1.16381384E-1,-6.8018086E-2,5.935772E-1,3.953741E-2,4.2025757E-1,5.3769793E-2,4.7272527E-1,3.815443E-1,-1.5187513E-2,-2.0984398E-1,-4.369399E-2,1.3739137E-1,5.469545E-1,5.9486353E-1,1.4509396E-1,-1.7495659E-1,6.685525E-1],"categories":[],"categories_nodes":[],"categories_segments":[],"categories_sizes":[],"default_left":[0,0,0,0,0,0,0,0,0,0,0,0,0,0,0,0,0,0,0,0,0,0,0,0,0,0,0,0,0,0,0,0,0,0,0,0,0,0,0,0,0,0,0,0,0,0,0,0,0,0,0,0,0,0,0,0,0,0,0,0,0,0,0,0,0,0,0,0,0,0,0,0,0,0,0,0,0,0,0,0,0,0,0,0,0,0,0],"id":1,"left_children":[1,3,5,7,9,11,13,15,-1,17,19,21,23,25,27,29,-1,31,33,35,37,39,41,-1,43,45,47,49,51,53,55,57,59,-1,61,-1,63,65,67,69,71,73,75,-1,77,79,81,83,-1,-1,-1,85,-1,-1,-1,-1,-1,-1,-1,-1,-1,-1,-1,-1,-1,-1,-1,-1,-1,-1,-1,-1,-1,-1,-1,-1,-1,-1,-1,-1,-1,-1,-1,-1,-1,-1,-1],"loss_changes":[7.921186E1,6.7196236E0,3.0360146E1,1.9758072E0,5.3970776E0,1.640111E1,5.496166E0,2.032238E0,0E0,2.7591143E0,5.1085653E0,1.2421829E1,5.5784492E0,5.13291E0,1.2372604E1,8.576126E-1,0E0,3.5595741E0,5.4746003E0,6.782768E0,7.603481E0,9.354218E0,1.0114291E1,0E0,4.4348917E0,4.105014E0,1.6932983E0,1.1058023E0,4.303673E0,4.2625046E-1,1.247364E0,4.163592E0,2.4154358E0,0E0,9.989425E-1,0E0,4.7919655E-1,3.8751793E-1,4.2576723E0,6.6723223E0,5.030975E0,1.2274654E1,3.3689804E0,0E0,3.7248983E0,8.266747E-2,3.4374785E0,1.1018524E0,0E0,0E0,0E0,1.3719323E1,0E0,0E0,0E0,0E0,0E0,0E0,0E0,0E0,0E0,0E0,0E0,0E0,0E0,0E0,0E0,0E0,0E0,0E0,0E0,0E0,0E0,0E0,0E0,0E0,0E0,0E0,0E0,0E0,0E0,0E0,0E0,0E0,0E0,0E0,0E0],"parents":[2147483647,0,0,1,1,2,2,3,3,4,4,5,5,6,6,7,7,9,9,10,10,11,11,12,12,13,13,14,14,15,15,17,17,18,18,19,19,20,20,21,21,22,22,24,24,25,25,26,26,27,27,28,28,29,29,30,30,31,31,32,32,34,34,36,36,37,37,38,38,39,39,40,40,41,41,42,42,44,44,45,45,46,46,47,47,51,51],"right_children":[2,4,6,8,10,12,14,16,-1,18,20,22,24,26,28,30,-1,32,34,36,38,40,42,-1,44,46,48,50,52,54,56,58,60,-1,62,-1,64,66,68,70,72,74,76,-1,78,80,82,84,-1,-1,-1,86,-1,-1,-1,-1,-1,-1,-1,-1,-1,-1,-1,-1,-1,-1,-1,-1,-1,-1,-1,-1,-1,-1,-1,-1,-1,-1,-1,-1,-1,-1,-1,-1,-1,-1,-1],"split_conditions":[-3.0158687E-1,8.8943675E-2,1.549663E0,1.5919666E0,-1.05804235E-1,1.7984817E0,1.1531919E0,2.1396203E0,9.900495E-2,1.4284195E-1,-2.3941886E-1,1.1531919E0,-1.166221E0,2.7295773E0,-8.5035217E-1,-8.8493925E-1,1.0168753E-1,-1.2412884E0,-2.3941886E-1,-9.483227E-1,-6.215864E-1,5.7599845E0,9.823964E-1,8.420126E-1,-5.344834E-1,-9.047678E-1,1.4239535E0,-1.6956024E-1,1.048183E-1,-1.071105E0,-1.2564692E0,-1.332051E0,-8.215992E-1,3.7036806E-1,4.2593008E-1,2.851567E-1,5.422149E-1,-4.1825733E-1,-1.2349507E0,2.0386623E-2,-3.3257827E-1,1.2704813E0,-5.796075E-1,-1.9286372E-1,2.1484933E0,5.2567565E-1,2.3706303E0,1.0118685E0,1.223452E-1,9.692626E-2,-2.1645536E-1,-4.1521588E-1,8.6902225E-1,-1.5284002E-1,-2.96252E-1,-2.8916186E-2,-2.1591355E-1,-1.3709113E-1,3.69047E-1,-6.946247E-2,-2.8437027E-1,2.1982735E-2,-2.531544E-1,-3.1327236E-1,-4.981885E-2,-2.8150514E-1,-3.997355E-2,-1.4241971E-1,1.9019465E-1,2.8020587E-2,-1.16381384E-1,-6.8018086E-2,5.935772E-1,3.953741E-2,4.2025757E-1,5.3769793E-2,4.7272527E-1,3.815443E-1,-1.5187513E-2,-2.0984398E-1,-4.369399E-2,1.3739137E-1,5.469545E-1,5.9486353E-1,1.4509396E-1,-1.7495659E-1,6.685525E-1],"split_indices":[1,4,10,14,9,1,0,10,0,10,13,0,9,10,9,1,0,10,13,12,12,5,10,0,9,13,13,12,14,13,9,10,13,0,13,0,14,1,1,2,14,9,9,0,1,12,12,3,0,0,0,4,0,0,0,0,0,0,0,0,0,0,0,0,0,0,0,0,0,0,0,0,0,0,0,0,0,0,0,0,0,0,0,0,0,0,0],"split_type":[0,0,0,0,0,0,0,0,0,0,0,0,0,0,0,0,0,0,0,0,0,0,0,0,0,0,0,0,0,0,0,0,0,0,0,0,0,0,0,0,0,0,0,0,0,0,0,0,0,0,0,0,0,0,0,0,0,0,0,0,0,0,0,0,0,0,0,0,0,0,0,0,0,0,0,0,0,0,0,0,0,0,0,0,0,0,0],"sum_hessian":[4.3336206E2,1.5958069E2,2.7378137E2,8.0774414E1,7.880627E1,2.3463991E2,3.9141468E1,7.967978E1,1.0946368E0,4.225463E1,3.6551632E1,2.1974234E2,1.4897559E1,2.6784513E1,1.2356953E1,7.8620384E1,1.0593961E0,3.6537174E1,5.7174563E0,1.0299721E1,2.6251913E1,1.17972206E2,1.0177014E2,1.0396743E0,1.3857884E1,1.918383E1,7.600684E0,2.3272297E0,1.0029722E1,4.0014107E1,3.8606277E1,4.7198715E0,3.1817305E1,1.5636423E0,4.153814E0,1.4419088E0,8.857812E0,5.210658E0,2.1041254E1,1.1451718E2,3.4550276E0,9.180988E1,9.960258E0,1.1284858E0,1.2729399E1,2.3752158E0,1.6808615E1,5.586091E0,2.0145934E0,1.0277382E0,1.2994916E0,5.7972937E0,4.2324286E0,5.6434755E0,3.4370632E1,3.897292E0,3.4708984E1,3.5596867E0,1.1601849E0,6.694898E0,2.5122406E1,1.5491427E0,2.6046712E0,7.733826E0,1.1239853E0,4.1151676E0,1.0954907E0,3.4855561E0,1.7555698E1,5.2332623E1,6.2184555E1,1.2504965E0,2.204531E0,8.439585E1,7.4140286E0,2.5244284E0,7.435829E0,1.0190995E1,2.5384037E0,1.3286896E0,1.0465263E0,1.5441657E1,1.3669565E0,4.162596E0,1.4234947E0,2.2572513E0,3.5400426E0],"tree_param":{"num_deleted":"0","num_feature":"15","num_nodes":"87","size_leaf_vector":"1"}},{"base_weights":[-1.4591507E-2,-4.7992676E-1,2.17138E-1,-5.277336E-1,2.9719263E-1,1.6430634E-1,1.4009702E0,-5.504442E-1,3.0299902E-1,-2.2303791E-1,6.8113095E-1,-3.893218E-2,4.0356588E-1,7.2113043E-1,1.7463963E0,-6.982074E-1,-3.8999292E-1,1.1713173E0,-2.2903359E-1,-2.1842411E-1,2.4706353E-1,3.2358336E-1,1.2108679E0,-2.2467744E-1,1.4225415E0,1.9852862E0,1.1852491E-1,-7.191281E-1,8.013864E-2,-2.7484673E-1,-6.741714E-1,6.3040316E-2,1.4776419E0,9.487079E-2,-1.9417526E-1,-4.2674252E-1,1.5130703E-1,7.08602E-1,-1.8346143E-1,1.4643686E-1,7.3199576E-1,5.051094E-1,1.7962606E0,5.773883E-1,2.694019E-2,6.916029E-1,2.6089337E-1,-2.6798502E-1,-1.7251337E-1,-1.2433714E-1,8.1725456E-2,-2.397855E-1,9.658986E-2,1.0754261E-1,5.5354035E-1,-2.7353957E-1,-4.9836222E-2,2.7682564E-1,-1.570525E-2,7.389911E-2,3.77629E-1,-1.15526035E-1,2.9204714E-1,4.4171086E-1,2.0676326E-2,1.669165E-1,4.6908948E-1,-1.2333782E-1,3.67722E-1,6.02381E-1,1.6529861E-1],"categories":[],"categories_nodes":[],"categories_segments":[],"categories_sizes":[],"default_left":[0,0,0,0,0,0,0,0,0,0,0,0,0,0,0,0,0,0,0,0,0,0,0,0,0,0,0,0,0,0,0,0,0,0,0,0,0,0,0,0,0,0,0,0,0,0,0,0,0,0,0,0,0,0,0,0,0,0,0,0,0,0,0,0,0,0,0,0,0,0,0],"id":2,"left_children":[1,3,5,7,9,11,13,15,-1,-1,17,19,21,23,25,27,29,31,33,35,37,39,41,-1,43,45,-1,47,-1,49,51,-1,53,-1,-1,55,57,59,61,63,65,67,69,-1,-1,-1,-1,-1,-1,-1,-1,-1,-1,-1,-1,-1,-1,-1,-1,-1,-1,-1,-1,-1,-1,-1,-1,-1,-1,-1,-1],"loss_changes":[4.6043427E1,5.430065E0,1.7600313E1,5.238125E0,4.0485525E0,1.3341471E1,1.5695362E0,2.8754807E0,0E0,0E0,3.3904397E0,7.7071805E0,7.741091E0,7.006613E0,1.5671787E0,1.5624008E0,1.9716387E0,1.0768542E0,9.540432E-1,7.160571E0,1.1646303E1,8.282782E0,3.6328602E0,0E0,2.6681604E0,1.1676407E-1,0E0,1.1595955E0,0E0,3.8259645E0,2.5404434E0,0E0,7.399807E-1,0E0,0E0,7.3310614E0,5.380668E0,6.8559504E0,7.5550394E0,8.3402195E0,4.216999E0,4.712219E0,3.738804E-1,0E0,0E0,0E0,0E0,0E0,0E0,0E0,0E0,0E0,0E0,0E0,0E0,0E0,0E0,0E0,0E0,0E0,0E0,0E0,0E0,0E0,0E0,0E0,0E0,0E0,0E0,0E0,0E0],"parents":[2147483647,0,0,1,1,2,2,3,3,4,4,5,5,6,6,7,7,10,10,11,11,12,12,13,13,14,14,15,15,16,16,17,17,18,18,19,19,20,20,21,21,22,22,24,24,25,25,27,27,29,29,30,30,32,32,35,35,36,36,37,37,38,38,39,39,40,40,41,41,42,42],"right_children":[2,4,6,8,10,12,14,16,-1,-1,18,20,22,24,26,28,30,32,34,36,38,40,42,-1,44,46,-1,48,-1,50,52,-1,54,-1,-1,56,58,60,62,64,66,68,70,-1,-1,-1,-1,-1,-1,-1,-1,-1,-1,-1,-1,-1,-1,-1,-1,-1,-1,-1,-1,-1,-1,-1,-1,-1,-1,-1,-1],"split_conditions":[-3.0158687E-1,2.6097414E0,1.8106649E0,2.230383E0,-4.0575612E-1,1.4900888E0,1.4900888E0,8.8943675E-2,3.0299902E-1,-2.2303791E-1,8.417732E-1,4.9170824E-3,2.3600209E0,1.1531919E0,1.4239535E0,1.5919666E0,7.586046E-1,-4.4711527E-1,2.8618212E0,9.817884E-1,-2.013593E-1,1.4484704E0,9.725429E-2,-2.2467744E-1,-8.406467E-2,9.531352E-1,1.1852491E-1,-4.1088936E-1,8.013864E-2,2.5959286E-1,2.0065591E0,6.3040316E-2,-8.324218E-2,9.487079E-2,-1.9417526E-1,-4.029433E-1,-6.559797E-1,-1.867569E-1,3.867969E-1,-1.1399425E0,5.9310323E-1,1.1531919E0,1.4058536E0,5.773883E-1,2.694019E-2,6.916029E-1,2.6089337E-1,-2.6798502E-1,-1.7251337E-1,-1.2433714E-1,8.1725456E-2,-2.397855E-1,9.658986E-2,1.0754261E-1,5.5354035E-1,-2.7353957E-1,-4.9836222E-2,2.7682564E-1,-1.570525E-2,7.389911E-2,3.77629E-1,-1.15526035E-1,2.9204714E-1,4.4171086E-1,2.0676326E-2,1.669165E-1,4.6908948E-1,-1.2333782E-1,3.67722E-1,6.02381E-1,1.6529861E-1],"split_indices":[1,4,14,10,13,7,7,4,0,0,13,4,11,0,13,14,13,10,4,1,14,1,9,0,10,12,0,11,0,13,2,0,9,0,0,12,12,12,11,12,4,0,9,0,0,0,0,0,0,0,0,0,0,0,0,0,0,0,0,0,0,0,0,0,0,0,0,0,0,0,0],"split_type":[0,0,0,0,0,0,0,0,0,0,0,0,0,0,0,0,0,0,0,0,0,0,0,0,0,0,0,0,0,0,0,0,0,0,0,0,0,0,0,0,0,0,0,0,0,0,0,0,0,0,0,0,0,0,0,0,0,0,0,0,0,0,0,0,0,0,0,0,0,0,0],"sum_hessian":[4.2502612E2,1.4093797E2,2.8408813E2,1.3307253E2,7.8654532E0,2.7304172E2,1.1046422E1,1.317685E2,1.304033E0,1.867433E0,5.9980206E0,1.480869E2,1.2495483E2,4.7619643E0,6.2844577E0,6.685173E1,6.491676E1,3.7119498E0,2.2860706E0,9.112978E1,5.695711E1,1.1496557E2,9.989261E0,1.5162938E0,3.2456708E0,4.9416947E0,1.3427631E0,6.56833E1,1.1684331E0,4.7597794E1,1.731897E1,1.3045449E0,2.4074051E0,1.0981524E0,1.1879182E0,5.8189663E1,3.294012E1,2.7176746E1,2.9780367E1,8.113311E1,3.3832462E1,5.37361E0,4.6156507E0,2.0349338E0,1.2107369E0,3.011398E0,1.9302967E0,2.7384094E1,3.8299202E1,3.8116684E1,9.481107E0,1.55620165E1,1.7569532E0,1.0834166E0,1.3239884E0,1.9464596E1,3.8725067E1,6.142348E0,2.6797773E1,1.5554694E1,1.1622052E1,2.592883E1,3.851538E0,3.487297E0,7.764581E1,2.9311995E1,4.5204654E0,2.554816E0,2.8187938E0,3.4215784E0,1.1940722E0],"tree_param":{"num_deleted":"0","num_feature":"15","num_nodes":"71","size_leaf_vector":"1"}},{"base_weights":[-1.1136331E-2,-3.9045078E-1,1.5476105E-1,-6.917361E-1,-2.6738277E-1,1.148507E-1,1.0029777E0,-7.4984944E-1,1.1351444E-1,-3.2799187E-1,4.1340366E-1,4.5398686E-2,4.9525365E-1,1.1355131E0,-7.660043E-2,-8.5035676E-1,-2.0215374E-1,1.305612E-1,-6.520512E-2,-3.492679E-1,1.954707E-1,-7.031952E-2,1.0581704E0,-8.849297E-2,2.6305476E-1,5.680165E-1,-4.4928676E-1,6.3362E-1,1.361056E0,2.9930526E-2,-9.096342E-1,5.0694174E-1,-2.528908E-1,-5.253122E-1,-2.1710674E-1,-5.3162605E-1,1.5516233E-1,4.433195E-1,4.5116197E-2,-1.3566947E-1,1.2400643E0,7.223161E-1,1.16990395E-1,1.2357755E0,4.0504608E-1,-2.4274181E-1,5.188966E-2,-1.7897056E-1,1.0688272E0,4.7762638E-1,2.1803685E-2,-2.8169224E-1,-5.2995227E-2,-6.900461E-2,3.0952725E-1,1.25216E-2,-1.8753739E-1,-3.3128425E-2,-1.8844889E-1,-2.0433353E-1,-2.2916691E-2,-6.37224E-2,1.2053706E-1,-7.311196E-2,5.1984805E-1,9.395531E-2,4.5259607E-1,1.2177344E-3,2.655436E-1,9.5387876E-2,5.2395844E-1,-1.2592466E-1,1.4700945E-1,4.2658234E-1,2.237355E-2],"categories":[],"categories_nodes":[],"categories_segments":[],"categories_sizes":[],"default_left":[0,0,0,0,0,0,0,0,0,0,0,0,0,0,0,0,0,0,0,0,0,0,0,0,0,0,0,0,0,0,0,0,0,0,0,0,0,0,0,0,0,0,0,0,0,0,0,0,0,0,0,0,0,0,0,0,0,0,0,0,0,0,0,0,0,0,0,0,0,0,0,0,0,0,0],"id":3,"left_children":[1,3,5,7,9,11,13,15,17,19,21,23,25,27,-1,29,31,-1,-1,33,-1,35,37,39,41,43,45,47,49,-1,51,53,-1,55,57,59,-1,-1,-1,61,63,65,67,69,71,-1,-1,-1,73,-1,-1,-1,-1,-1,-1,-1,-1,-1,-1,-1,-1,-1,-1,-1,-1,-1,-1,-1,-1,-1,-1,-1,-1,-1,-1],"loss_changes":[2.6202194E1,4.5125504E0,9.693187E0,1.7750015E0,3.9143033E0,7.31816E0,2.439746E0,1.689394E0,4.4574687E-1,1.9917746E0,2.5473638E0,6.902375E0,3.1964083E0,4.7855854E-1,0E0,1.6822681E0,3.405786E0,0E0,0E0,1.8287115E0,0E0,1.7569346E0,1.0959742E0,9.375224E0,5.9632597E0,3.8715935E0,9.503815E-1,3.605766E0,2.057806E0,0E0,4.082737E-1,1.6822951E0,0E0,2.0128002E0,2.0968535E0,1.8996882E-1,0E0,0E0,0E0,5.97334E0,4.1774516E0,6.4640436E0,6.0336065E0,2.9108238E0,2.573648E0,0E0,0E0,0E0,1.4574575E0,0E0,0E0,0E0,0E0,0E0,0E0,0E0,0E0,0E0,0E0,0E0,0E0,0E0,0E0,0E0,0E0,0E0,0E0,0E0,0E0,0E0,0E0,0E0,0E0,0E0,0E0],"parents":[2147483647,0,0,1,1,2,2,3,3,4,4,5,5,6,6,7,7,8,8,9,9,10,10,11,11,12,12,13,13,15,15,16,16,19,19,21,21,22,22,23,23,24,24,25,25,26,26,27,27,28,28,30,30,31,31,33,33,34,34,35,35,39,39,40,40,41,41,42,42,43,43,44,44,48,48],"right_children":[2,4,6,8,10,12,14,16,18,20,22,24,26,28,-1,30,32,-1,-1,34,-1,36,38,40,42,44,46,48,50,-1,52,54,-1,56,58,60,-1,-1,-1,62,64,66,68,70,72,-1,-1,-1,74,-1,-1,-1,-1,-1,-1,-1,-1,-1,-1,-1,-1,-1,-1,-1,-1,-1,-1,-1,-1,-1,-1,-1,-1,-1,-1],"split_conditions":[-3.0158687E-1,-1.1182802E0,1.8106649E0,1.2479193E0,2.1896086E0,1.549663E0,2.2895603E0,7.074688E-1,-2.3941886E-1,2.230383E0,2.336046E-1,9.817884E-1,2.0893025E0,1.4900888E0,-7.660043E-2,-1.5035287E0,1.1029917E0,1.305612E-1,-6.520512E-2,-3.3118927E-1,1.954707E-1,2.1006459E-1,5.285832E-1,5.7599845E0,-4.2167306E-1,3.98436E-1,5.0337136E-1,1.1531919E0,1.4239535E0,2.9930526E-2,8.483925E-1,-2.0097192E-1,-2.528908E-1,-1.2564692E0,9.249418E-1,1.0134729E0,1.5516233E-1,4.433195E-1,4.5116197E-2,1.2704813E0,-5.7209337E-1,-6.472936E-1,6.7343384E-1,1.1531919E0,6.31777E-1,-2.4274181E-1,5.188966E-2,-1.7897056E-1,-8.406467E-2,4.7762638E-1,2.1803685E-2,-2.8169224E-1,-5.2995227E-2,-6.900461E-2,3.0952725E-1,1.25216E-2,-1.8753739E-1,-3.3128425E-2,-1.8844889E-1,-2.0433353E-1,-2.2916691E-2,-6.37224E-2,1.2053706E-1,-7.311196E-2,5.1984805E-1,9.395531E-2,4.5259607E-1,1.2177344E-3,2.655436E-1,9.5387876E-2,5.2395844E-1,-1.2592466E-1,1.4700945E-1,4.2658234E-1,2.237355E-2],"split_indices":[1,1,14,9,4,10,12,12,13,10,10,1,13,7,0,12,12,0,0,4,0,9,10,5,9,1,9,0,13,0,14,11,0,9,13,2,0,0,0,9,13,9,14,0,1,0,0,0,10,0,0,0,0,0,0,0,0,0,0,0,0,0,0,0,0,0,0,0,0,0,0,0,0,0,0],"split_type":[0,0,0,0,0,0,0,0,0,0,0,0,0,0,0,0,0,0,0,0,0,0,0,0,0,0,0,0,0,0,0,0,0,0,0,0,0,0,0,0,0,0,0,0,0,0,0,0,0,0,0,0,0,0,0,0,0,0,0,0,0,0,0,0,0,0,0,0,0,0,0,0,0,0,0],"sum_hessian":[4.144283E2,1.2569063E2,2.8873767E2,3.5111843E1,9.057878E1,2.7684686E2,1.1890813E1,3.2812622E1,2.299221E0,8.364982E1,6.9289646E0,2.3505168E2,4.1795185E1,1.0846017E1,1.0447963E0,2.7257927E1,5.5546947E0,1.0058812E0,1.2933397E0,8.2501335E1,1.1484835E0,4.4679294E0,2.4610355E0,1.4589651E2,8.915517E1,3.917589E1,2.619291E0,4.5439124E0,6.302104E0,1.5606157E0,2.5697311E1,2.7360384E0,2.8186562E0,3.4101673E1,4.8399662E1,2.556107E0,1.9118222E0,1.2537351E0,1.2073004E0,1.4176054E2,4.1359744E0,2.0561064E1,6.85941E1,6.3940277E0,3.2781864E1,1.4692655E0,1.1500255E0,1.0905406E0,3.453372E0,5.1439576E0,1.1581461E0,2.4438072E1,1.2592387E0,1.3716544E0,1.364384E0,5.1912336E0,2.891044E1,3.9434208E1,8.965452E0,1.5507269E0,1.0053802E0,1.2457807E2,1.7182476E1,1.1571316E0,2.9788427E0,1.4444083E1,6.116981E0,6.067864E1,7.915464E0,2.8661404E0,3.5278876E0,2.6942945E0,3.008757E1,2.2308903E0,1.2224816E0],"tree_param":{"num_deleted":"0","num_feature":"15","num_nodes":"75","size_leaf_vector":"1"}},{"base_weights":[-8.9048445E-3,-3.1382954E-1,1.1177679E-1,-6.0530645E-1,-2.0537813E-1,6.530593E-2,5.16549E-1,-8.390682E-1,-3.1936112E-1,-2.5737262E-1,3.2063657E-1,-2.7214718E-1,1.4147007E-1,2.4606557E-1,1.1995287E0,-8.8517374E-1,-2.4940735E-2,2.0187856E-1,-6.0536945E-1,-4.6732086E-1,-1.2657832E-1,6.0841393E-1,-3.1694433E-1,-7.2532177E-1,-1.2695065E-1,1.2166651E-1,1.0584315E0,-7.207795E-2,1.0436306E0,-4.589167E-2,1.4148434E0,-2.8383624E-2,-9.407245E-1,-2.389827E-1,1.1777753E0,1.1344113E-1,-7.660558E-1,6.515559E-2,-6.0020316E-1,7.480081E-1,-2.057793E-1,-7.553449E-2,3.6855698E-1,-2.0908119E-1,6.540751E-2,1.0194176E-1,-8.637692E-1,-2.3348415E-1,4.6408662E-1,3.6420828E-1,3.9451092E-2,5.177024E-2,4.47858E-1,2.9103953E-1,-2.2316907E-1,1.4183232E0,-9.9661864E-2,4.6164164E-1,1.5049632E-1,-2.9940453E-1,-3.0105134E-2,4.201571E-1,1.09296724E-1,1.006184E-3,-2.8424752E-1,2.6925513E-1,-1.0326094E-1,-1.5620097E-2,-2.0195954E-1,-3.9364915E-2,5.1569116E-1,-1.2957488E-1,-2.4178764E-3,-2.1312861E-1,2.2776209E-1,-3.0325368E-1,-9.5392846E-2,-1.0710581E-1,1.3774893E-1,2.8566074E-1,-2.0910917E-1,-7.232954E-2,1.5412103E-1,-5.424303E-3,2.3570554E-1,-2.1551122E-1,4.799984E-2,5.3798262E-2,5.189053E-1],"categories":[],"categories_nodes":[],"categories_segments":[],"categories_sizes":[],"default_left":[0,0,0,0,0,0,0,0,0,0,0,0,0,0,0,0,0,0,0,0,0,0,0,0,0,0,0,0,0,0,0,0,0,0,0,0,0,0,0,0,0,0,0,0,0,0,0,0,0,0,0,0,0,0,0,0,0,0,0,0,0,0,0,0,0,0,0,0,0,0,0,0,0,0,0,0,0,0,0,0,0,0,0,0,0,0,0,0,0],"id":4,"left_children":[1,3,5,7,9,11,13,15,17,19,21,23,25,27,29,31,-1,33,35,37,39,41,43,45,47,49,51,53,55,-1,57,-1,59,-1,61,-1,63,65,67,69,71,73,-1,-1,-1,-1,75,77,79,81,83,-1,-1,-1,85,87,-1,-1,-1,-1,-1,-1,-1,-1,-1,-1,-1,-1,-1,-1,-1,-1,-1,-1,-1,-1,-1,-1,-1,-1,-1,-1,-1,-1,-1,-1,-1,-1,-1],"loss_changes":[1.4965731E1,3.5207682E0,5.4480405E0,1.7878599E0,2.4224238E0,6.7867556E0,5.2224226E0,4.947729E-1,2.4252415E0,2.0940733E0,1.6866045E0,3.1117E0,3.773057E0,5.8231196E0,2.6087294E0,5.8144474E-1,0E0,7.002332E0,1.9056108E0,2.1425233E0,3.5955544E0,2.6171427E0,8.0029446E-1,2.0044875E0,2.5065453E0,4.2022195E0,1.4405208E0,2.9137344E0,3.8344016E0,0E0,4.1319847E-2,0E0,5.812197E-1,0E0,1.3313198E-1,0E0,1.2762623E0,2.639245E0,9.207525E-1,3.9319258E0,2.0686426E0,2.5386062E0,0E0,0E0,0E0,0E0,5.254841E-1,2.9821446E0,4.150112E0,4.9581056E0,6.8424273E0,0E0,0E0,0E0,3.1077785E0,1.7411175E0,0E0,0E0,0E0,0E0,0E0,0E0,0E0,0E0,0E0,0E0,0E0,0E0,0E0,0E0,0E0,0E0,0E0,0E0,0E0,0E0,0E0,0E0,0E0,0E0,0E0,0E0,0E0,0E0,0E0,0E0,0E0,0E0,0E0],"parents":[2147483647,0,0,1,1,2,2,3,3,4,4,5,5,6,6,7,7,8,8,9,9,10,10,11,11,12,12,13,13,14,14,15,15,17,17,18,18,19,19,20,20,21,21,22,22,23,23,24,24,25,25,26,26,27,27,28,28,30,30,32,32,34,34,36,36,37,37,38,38,39,39,40,40,41,41,46,46,47,47,48,48,49,49,50,50,54,54,55,55],"right_children":[2,4,6,8,10,12,14,16,18,20,22,24,26,28,30,32,-1,34,36,38,40,42,44,46,48,50,52,54,56,-1,58,-1,60,-1,62,-1,64,66,68,70,72,74,-1,-1,-1,-1,76,78,80,82,84,-1,-1,-1,86,88,-1,-1,-1,-1,-1,-1,-1,-1,-1,-1,-1,-1,-1,-1,-1,-1,-1,-1,-1,-1,-1,-1,-1,-1,-1,-1,-1,-1,-1,-1,-1,-1,-1],"split_conditions":[-3.0158687E-1,-1.1182802E0,1.1812893E0,1.1531919E0,2.1896086E0,-5.378779E-1,1.9229761E-1,9.3205047E-1,-6.059499E-1,-4.1088936E-1,5.502423E-1,-6.021695E-1,1.2981525E1,5.9226733E-1,-1.1436589E0,-1.7123774E0,-2.4940735E-2,-9.2361915E-1,-6.559797E-1,-1.2412884E0,-8.555472E-1,5.2079298E-2,-8.8493925E-1,-1.3765095E0,4.9847522E-1,-5.7209337E-1,-7.308163E-2,-9.2361915E-1,1.0134729E0,-4.589167E-2,1.1424997E0,-2.8383624E-2,1.4900888E0,-2.389827E-1,-8.324218E-2,1.1344113E-1,-5.075369E-1,-3.7631792E-1,-1.4604765E0,5.9310323E-1,-1.5761964E-1,7.610615E-2,3.6855698E-1,-2.0908119E-1,6.540751E-2,1.0194176E-1,1.7642424E-1,1.5651408E0,4.2593008E-1,-4.6379724E-1,5.7599845E0,5.177024E-2,4.47858E-1,2.9103953E-1,-1.6956024E-1,-6.8249553E-1,-9.9661864E-2,4.6164164E-1,1.5049632E-1,-2.9940453E-1,-3.0105134E-2,4.201571E-1,1.09296724E-1,1.006184E-3,-2.8424752E-1,2.6925513E-1,-1.0326094E-1,-1.5620097E-2,-2.0195954E-1,-3.9364915E-2,5.1569116E-1,-1.2957488E-1,-2.4178764E-3,-2.1312861E-1,2.2776209E-1,-3.0325368E-1,-9.5392846E-2,-1.0710581E-1,1.3774893E-1,2.8566074E-1,-2.0910917E-1,-7.232954E-2,1.5412103E-1,-5.424303E-3,2.3570554E-1,-2.1551122E-1,4.799984E-2,5.3798262E-2,5.189053E-1],"split_indices":[1,1,4,0,4,10,14,9,10,11,12,9,6,13,9,11,0,10,12,10,10,10,1,11,14,13,13,10,2,0,11,0,7,0,9,0,14,14,11,4,14,12,0,0,0,0,13,1,13,14,5,0,0,0,12,14,0,0,0,0,0,0,0,0,0,0,0,0,0,0,0,0,0,0,0,0,0,0,0,0,0,0,0,0,0,0,0,0,0],"split_type":[0,0,0,0,0,0,0,0,0,0,0,0,0,0,0,0,0,0,0,0,0,0,0,0,0,0,0,0,0,0,0,0,0,0,0,0,0,0,0,0,0,0,0,0,0,0,0,0,0,0,0,0,0,0,0,0,0,0,0,0,0,0,0,0,0,0,0,0,0,0,0,0,0,0,0,0,0,0,0,0,0,0,0,0,0,0,0,0,0],"sum_hessian":[4.047373E2,1.14310356E2,2.9042694E2,2.9755997E1,8.455436E1,2.6155933E2,2.8867619E1,1.5307594E1,1.4448402E1,7.741309E1,7.1412697E0,4.769013E1,2.1386919E2,2.165269E1,7.214928E0,1.4266488E1,1.0411061E0,5.2232933E0,9.225109E0,2.8727453E1,4.868564E1,4.9519243E0,2.1893454E0,1.0602643E1,3.7087482E1,2.1045665E2,3.412536E0,1.6128689E1,5.524002E0,1.0306208E0,6.184307E0,1.1141281E0,1.315236E1,2.6725712E0,2.5507221E0,1.1054943E0,8.119615E0,5.839101E0,2.2888351E1,3.3415658E0,4.534407E1,2.7723536E0,2.1795707E0,1.103067E0,1.0862782E0,1.052323E0,9.55032E0,3.1936028E1,5.1514573E0,5.241082E1,1.5804584E2,1.5826026E0,1.8299333E0,1.3557866E0,1.47729025E1,4.317345E0,1.2066573E0,4.8419423E0,1.3423645E0,1.21373415E1,1.0150192E0,1.4358424E0,1.1148798E0,1.7366337E0,6.3829813E0,1.5318494E0,4.3072515E0,2.8911786E0,1.9997173E1,2.2074964E0,1.1340694E0,2.0599464E1,2.4744606E1,1.6592625E0,1.1130912E0,6.8518615E0,2.6984582E0,2.7513493E1,4.422535E0,3.7534783E0,1.3979789E0,1.0260966E1,4.2149853E1,1.4763913E2,1.0406704E1,6.062717E0,8.710186E0,1.1835608E0,3.133784E0],"tree_param":{"num_deleted":"0","num_feature":"15","num_nodes":"89","size_leaf_vector":"1"}},{"base_weights":[-8.360835E-3,-4.0075177E-1,4.8068717E-2,-6.34135E-1,-7.3165774E-2,2.4761114E-2,6.2453425E-1,9.749822E-2,-7.587883E-1,-4.763699E-1,4.0972403E-1,-8.084924E-2,1.4409749E-1,5.207231E-1,3.328176E-1,2.5535163E-1,-4.8863524E-1,-8.2096463E-1,6.293086E-2,5.5158824E-1,-7.3379546E-1,-2.5082088E-1,7.9950786E-1,-1.588401E-1,4.2532182E-1,-4.784609E-3,3.8038638E-1,-1.9275883E-1,6.3295585E-1,-1.661978E-2,-1.9303603E-1,-2.868575E-1,-4.262207E-1,-2.4177123E-2,2.7424183E-1,4.1084457E-2,-2.6068488E-1,2.6057667E-1,-2.3897019E-1,1.5001726E0,7.637884E-2,-2.628122E-1,9.014265E-2,1.253431E0,1.8412402E-1,2.258777E-1,-2.6501337E-1,-5.022814E-1,4.6173412E-1,2.5070596E-1,-7.057923E-1,9.3664384E-1,1.9556302E-1,-1.8519145E-1,1.2531818E-1,1.17885135E-1,5.4609555E-1,-9.686906E-2,2.0591599E-1,-8.728793E-2,2.734669E-1,7.480204E-2,-9.528151E-2,4.9499267E-1,8.845431E-2,3.3357632E-3,2.4280548E-1,-8.280326E-3,2.9721504E-1,4.3632027E-2,-1.2675449E-1,1.0703303E-1,-2.3440428E-1,4.5829204E-1,1.1970446E-1,-2.7767262E-1,-2.4976447E-2,7.345743E-2,3.4681442E-1,-4.2819634E-2,2.0082848E-1],"categories":[],"categories_nodes":[],"categories_segments":[],"categories_sizes":[],"default_left":[0,0,0,0,0,0,0,0,0,0,0,0,0,0,0,0,0,0,0,0,0,0,0,0,0,0,0,0,0,0,0,0,0,0,0,0,0,0,0,0,0,0,0,0,0,0,0,0,0,0,0,0,0,0,0,0,0,0,0,0,0,0,0,0,0,0,0,0,0,0,0,0,0,0,0,0,0,0,0,0,0],"id":5,"left_children":[1,3,5,7,9,11,13,15,17,19,21,23,25,-1,27,-1,29,31,-1,33,35,37,39,41,43,45,47,49,51,-1,-1,-1,53,-1,-1,-1,-1,-1,-1,55,57,59,61,63,65,67,69,71,73,-1,75,77,79,-1,-1,-1,-1,-1,-1,-1,-1,-1,-1,-1,-1,-1,-1,-1,-1,-1,-1,-1,-1,-1,-1,-1,-1,-1,-1,-1,-1],"loss_changes":[8.845037E0,3.7931786E0,4.6786733E0,2.7367668E0,4.4833794E0,4.2568207E0,3.8099432E0,2.684969E0,1.6813946E0,3.703237E0,2.9192696E0,7.1470833E0,5.577713E0,0E0,2.008361E0,0E0,2.0076376E-1,8.6035156E-1,0E0,7.766712E-1,1.3426414E0,3.5508897E0,3.3710957E0,4.065198E0,4.6057987E0,5.95561E0,4.631875E0,3.2876985E0,8.588817E-1,0E0,0E0,0E0,1.5261931E0,0E0,0E0,0E0,0E0,0E0,0E0,5.042362E-1,1.3028383E0,3.9140987E0,3.1127887E0,1.5242634E0,2.1462207E0,1.02266035E1,3.0748444E0,1.633235E0,3.1762094E0,0E0,4.6388292E-1,3.7965012E-1,8.1351006E-1,0E0,0E0,0E0,0E0,0E0,0E0,0E0,0E0,0E0,0E0,0E0,0E0,0E0,0E0,0E0,0E0,0E0,0E0,0E0,0E0,0E0,0E0,0E0,0E0,0E0,0E0,0E0,0E0],"parents":[2147483647,0,0,1,1,2,2,3,3,4,4,5,5,6,6,7,7,8,8,9,9,10,10,11,11,12,12,14,14,16,16,17,17,19,19,20,20,21,21,22,22,23,23,24,24,25,25,26,26,27,27,28,28,32,32,39,39,40,40,41,41,42,42,43,43,44,44,45,45,46,46,47,47,48,48,50,50,51,51,52,52],"right_children":[2,4,6,8,10,12,14,16,18,20,22,24,26,-1,28,-1,30,32,-1,34,36,38,40,42,44,46,48,50,52,-1,-1,-1,54,-1,-1,-1,-1,-1,-1,56,58,60,62,64,66,68,70,72,74,-1,76,78,80,-1,-1,-1,-1,-1,-1,-1,-1,-1,-1,-1,-1,-1,-1,-1,-1,-1,-1,-1,-1,-1,-1,-1,-1,-1,-1,-1,-1],"split_conditions":[-8.8493925E-1,9.292096E-1,2.7295773E0,-1.071105E0,-1.17004946E-1,1.1531919E0,-3.7631792E-1,-8.727077E-1,1.0233511E0,-1.4604765E0,-6.0680117E-2,1.4284158E0,3.867969E-1,5.207231E-1,1.7338986E-2,2.5535163E-1,-5.378779E-1,1.0134729E0,6.293086E-2,-4.889247E-1,-8.137145E-1,-7.6161623E-1,1.1812893E0,5.502423E-1,1.5863502E0,-2.429554E-1,-7.262352E-1,8.905987E-1,3.1440255E-1,-1.661978E-2,-1.9303603E-1,-2.868575E-1,7.074688E-1,-2.4177123E-2,2.7424183E-1,4.1084457E-2,-2.6068488E-1,2.6057667E-1,-2.3897019E-1,-1.1182802E0,1.1005162E0,2.83782E0,1.2546843E0,-1.5761964E-1,2.7370152E0,5.0337136E-1,-3.8574666E-1,-3.7654895E-1,-1.1718792E0,2.5070596E-1,3.5237505E0,1.2151294E0,6.1547327E0,-1.8519145E-1,1.2531818E-1,1.17885135E-1,5.4609555E-1,-9.686906E-2,2.0591599E-1,-8.728793E-2,2.734669E-1,7.480204E-2,-9.528151E-2,4.9499267E-1,8.845431E-2,3.3357632E-3,2.4280548E-1,-8.280326E-3,2.9721504E-1,4.3632027E-2,-1.2675449E-1,1.0703303E-1,-2.3440428E-1,4.5829204E-1,1.1970446E-1,-2.7767262E-1,-2.4976447E-2,7.345743E-2,3.4681442E-1,-4.2819634E-2,2.0082848E-1],"split_indices":[1,4,10,13,11,0,14,11,14,11,9,9,11,0,14,0,10,2,0,13,14,12,4,12,9,11,14,11,12,0,0,0,12,0,0,0,0,0,0,1,11,13,10,14,9,9,12,9,12,0,10,1,8,0,0,0,0,0,0,0,0,0,0,0,0,0,0,0,0,0,0,0,0,0,0,0,0,0,0,0,0],"split_type":[0,0,0,0,0,0,0,0,0,0,0,0,0,0,0,0,0,0,0,0,0,0,0,0,0,0,0,0,0,0,0,0,0,0,0,0,0,0,0,0,0,0,0,0,0,0,0,0,0,0,0,0,0,0,0,0,0,0,0,0,0,0,0,0,0,0,0,0,0,0,0,0,0,0,0,0,0,0,0,0,0],"sum_hessian":[3.9759073E2,4.9221336E1,3.483694E2,2.819704E1,2.1024296E1,3.3583392E2,1.2535456E1,4.136477E0,2.4060562E1,1.1464855E1,9.559442E0,1.7833418E2,1.5749974E2,1.5772562E0,1.09581995E1,1.6117909E0,2.5246863E0,2.2752365E1,1.3081977E0,2.0672305E0,9.397624E0,3.6798751E0,5.8795657E0,1.5511955E2,2.3214636E1,9.722161E1,6.027813E1,4.1132298E0,6.8449697E0,1.0221589E0,1.5025274E0,1.5887497E1,6.864868E0,1.0369022E0,1.0303282E0,1.2608974E0,8.136727E0,1.0121789E0,2.6676962E0,2.4404104E0,3.4391556E0,1.0938583E2,4.573371E1,4.289775E0,1.8924862E1,5.160862E1,4.561299E1,4.6498795E0,5.562825E1,1.1596472E0,2.9535825E0,3.3662856E0,3.4786842E0,5.8164716E0,1.0483966E0,1.0469503E0,1.39346E0,2.3630848E0,1.0760707E0,1.0756005E2,1.8257858E0,3.317115E1,1.2562561E1,2.5242739E0,1.765501E0,1.56203785E1,3.3044832E0,3.9486225E1,1.21223955E1,1.2670336E1,3.2942657E1,1.0718632E0,3.5780165E0,1.7933702E0,5.383488E1,1.8231517E0,1.1304308E0,1.3200753E0,2.04621E0,2.437401E0,1.041283E0],"tree_param":{"num_deleted":"0","num_feature":"15","num_nodes":"81","size_leaf_vector":"1"}},{"base_weights":[-4.1088145E-3,-1.5856789E-1,9.9359505E-2,-1.7728126E-1,3.1060883E-1,8.056216E-3,3.347671E-1,-1.9290529E-1,2.7218825E-1,5.8695334E-1,-3.1444807E-2,7.9781955E-1,1.5560378E-1,-2.1028185E-1,7.00948E-1,1.13496706E-1,5.016394E-1,-9.216968E-2,3.0896673E-1,1.4317377E0,4.0600494E-1,-4.1915926E-1,4.2542434E-1,-3.467834E-1,-7.727292E-2,3.5375792E-1,-4.2315777E-2,7.576487E-1,-3.8970876E-1,-1.6025583E-1,2.7649853E-1,-1.723232E-1,8.581238E-1,1.6892743E0,5.5488456E-2,1.4954406E0,-7.866534E-2,5.6536585E-1,-6.327924E-1,2.3949021E-1,1.0332808E0,1.00691006E-1,-1.2507524E-1,-5.5206154E-2,1.3138859E-1,4.1712934E-1,-8.2987264E-2,5.9580874E-2,-2.2188748E-1,-1.462819E-1,-7.1500577E-3,1.4354756E-1,-1.8463689E-1,7.1894504E-2,-2.968506E-1,3.5414946E-1,4.207452E-3,1.0246585E-1,6.192231E-1,6.715453E-2,5.914485E-1,-1.6250035E-1,2.6209837E-1,2.8998524E-1,-5.437976E-2,-2.3185119E-1,6.738428E-2,1.6271201E-1,-7.6880427E-3,-2.8137071E-2,3.849555E-1],"categories":[],"categories_nodes":[],"categories_segments":[],"categories_sizes":[],"default_left":[0,0,0,0,0,0,0,0,0,0,0,0,0,0,0,0,0,0,0,0,0,0,0,0,0,0,0,0,0,0,0,0,0,0,0,0,0,0,0,0,0,0,0,0,0,0,0,0,0,0,0,0,0,0,0,0,0,0,0,0,0,0,0,0,0,0,0,0,0,0,0],"id":6,"left_children":[1,3,5,7,-1,9,11,13,-1,15,17,19,21,23,25,27,-1,29,31,33,35,37,39,41,43,-1,-1,45,47,49,51,53,55,57,-1,59,61,63,65,67,69,-1,-1,-1,-1,-1,-1,-1,-1,-1,-1,-1,-1,-1,-1,-1,-1,-1,-1,-1,-1,-1,-1,-1,-1,-1,-1,-1,-1,-1,-1],"loss_changes":[6.2696824E0,3.699457E0,5.0473175E0,2.8149471E0,0E0,3.913148E0,5.321195E0,2.5455818E0,0E0,5.425995E0,3.3439476E0,3.906599E0,7.7103443E0,2.7370234E0,1.4448904E0,3.1097212E0,0E0,3.4801397E0,6.6259003E0,1.7766228E0,6.750902E0,3.7271428E0,3.5441785E0,3.721859E0,4.391859E0,0E0,0E0,3.0992055E0,1.2863408E0,5.176463E0,4.2050886E0,4.9148736E0,3.1440668E0,1.956727E0,0E0,1.9304457E0,4.72581E0,1.18916E0,1.8108487E0,2.1813087E0,2.2486935E0,0E0,0E0,0E0,0E0,0E0,0E0,0E0,0E0,0E0,0E0,0E0,0E0,0E0,0E0,0E0,0E0,0E0,0E0,0E0,0E0,0E0,0E0,0E0,0E0,0E0,0E0,0E0,0E0,0E0,0E0],"parents":[2147483647,0,0,1,1,2,2,3,3,5,5,6,6,7,7,9,9,10,10,11,11,12,12,13,13,14,14,15,15,17,17,18,18,19,19,20,20,21,21,22,22,23,23,24,24,27,27,28,28,29,29,30,30,31,31,32,32,33,33,35,35,36,36,37,37,38,38,39,39,40,40],"right_children":[2,4,6,8,-1,10,12,14,-1,16,18,20,22,24,26,28,-1,30,32,34,36,38,40,42,44,-1,-1,46,48,50,52,54,56,58,-1,60,62,64,66,68,70,-1,-1,-1,-1,-1,-1,-1,-1,-1,-1,-1,-1,-1,-1,-1,-1,-1,-1,-1,-1,-1,-1,-1,-1,-1,-1,-1,-1,-1,-1],"split_conditions":[1.6509506E-1,2.7068868E0,1.7297027E-1,2.5565186E0,3.1060883E-1,-1.1210968E0,-5.788233E-1,3.1272829E0,2.7218825E-1,1.6818113E0,1.1744477E0,-8.869061E-1,1.2015128E-1,1.1531919E0,5.512739E-1,1.4243607E-1,5.016394E-1,1.4058536E0,2.8246593E-1,1.0134729E0,-8.215992E-1,2.8176555E-1,1.0134729E0,-1.2412884E0,6.874178E-1,3.5375792E-1,-4.2315777E-2,-1.13879986E-1,8.0663174E-1,-2.8883862E-1,4.2593008E-1,1.9229653E0,1.1424997E0,-1.1665921E0,5.5488456E-2,-9.8793644E-1,3.8810247E-1,1.6494046E-1,5.5473083E-1,7.4692234E-2,-5.7209337E-1,1.00691006E-1,-1.2507524E-1,-5.5206154E-2,1.3138859E-1,4.1712934E-1,-8.2987264E-2,5.9580874E-2,-2.2188748E-1,-1.462819E-1,-7.1500577E-3,1.4354756E-1,-1.8463689E-1,7.1894504E-2,-2.968506E-1,3.5414946E-1,4.207452E-3,1.0246585E-1,6.192231E-1,6.715453E-2,5.914485E-1,-1.6250035E-1,2.6209837E-1,2.8998524E-1,-5.437976E-2,-2.3185119E-1,6.738428E-2,1.6271201E-1,-7.6880427E-3,-2.8137071E-2,3.849555E-1],"split_indices":[1,10,4,9,0,9,11,12,0,1,13,12,10,0,10,12,0,9,12,2,13,1,2,10,10,0,0,14,11,14,13,13,11,11,0,13,12,9,11,9,13,0,0,0,0,0,0,0,0,0,0,0,0,0,0,0,0,0,0,0,0,0,0,0,0,0,0,0,0,0,0],"split_type":[0,0,0,0,0,0,0,0,0,0,0,0,0,0,0,0,0,0,0,0,0,0,0,0,0,0,0,0,0,0,0,0,0,0,0,0,0,0,0,0,0,0,0,0,0,0,0,0,0,0,0,0,0,0,0,0,0,0,0,0,0,0,0,0,0,0,0,0,0,0,0],"sum_hessian":[3.9031995E2,1.5636435E2,2.339556E2,1.5478972E2,1.57462E0,1.6931908E2,6.463651E1,1.5340201E2,1.3877206E0,9.930212E0,1.5938887E2,1.7068773E1,4.7567738E1,1.512269E2,2.175112E0,7.682828E0,2.2473836E0,1.3587909E2,2.3509775E1,5.5061827E0,1.1562591E1,1.5019726E1,3.254801E1,7.384036E1,7.738653E1,1.1317995E0,1.0433125E0,3.147753E0,4.535075E0,1.1517393E2,2.0705168E1,1.2894786E1,1.061499E1,4.2693777E0,1.236805E0,2.918021E0,8.64457E0,2.384475E0,1.2635251E1,2.5991571E1,6.556438E0,6.5287285E0,6.731164E1,6.46376E1,1.2748929E1,1.7392809E0,1.4084721E0,1.8526517E0,2.6824234E0,3.3122055E1,8.205187E1,1.7259993E1,3.4451756E0,9.042731E0,3.8520546E0,7.3929706E0,3.2220197E0,1.3448458E0,2.924532E0,1.1953442E0,1.7226768E0,6.1067863E0,2.5377836E0,1.3593185E0,1.0251565E0,1.0946013E1,1.6892377E0,1.1643574E1,1.4347999E1,1.3032875E0,5.2531505E0],"tree_param":{"num_deleted":"0","num_feature":"15","num_nodes":"71","size_leaf_vector":"1"}},{"base_weights":[8.7243796E-4,-4.2701927E-1,2.7760284E-2,-7.1141803E-1,-1.4445113E-1,6.312685E-3,5.430562E-1,-2.0952874E-1,-8.3738637E-1,3.221998E-1,-4.5807976E-1,-1.3292518E-2,5.1046765E-1,6.537534E-1,-1.1700094E-1,9.432152E-2,-1.8150231E-1,-2.7384362E-1,-4.1691907E-2,-2.073303E-1,9.9054754E-1,6.574992E-2,-7.2269946E-1,-7.821861E-2,1.1083227E-1,1.0324513E-2,9.663881E-1,-3.742131E-2,7.9800636E-1,-2.119336E-2,4.2103928E-1,-1.3214301E-2,-2.5586736E-1,-4.141355E-2,-5.473473E-1,7.402081E-1,6.920532E-2,5.6231236E-1,-7.123971E-1,1.2502807E0,3.1321102E-1,1.0800858E0,2.0601204E-1,3.4711506E-2,-4.6655383E-2,-1.9808444E-3,-2.6428708E-1,3.670543E-2,4.354653E-1,1.1098296E-2,2.5875285E-1,-1.0011482E-2,2.3571917E-1,-5.3554263E-2,-2.6142722E-1,4.405209E-1,1.0269246E-1,-1.4970121E-1,2.7288434E-1,-2.3394432E-2,3.9410928E-1,2.0513055E-1,-5.949983E-2],"categories":[],"categories_nodes":[],"categories_segments":[],"categories_sizes":[],"default_left":[0,0,0,0,0,0,0,0,0,0,0,0,0,0,0,0,0,0,0,0,0,0,0,0,0,0,0,0,0,0,0,0,0,0,0,0,0,0,0,0,0,0,0,0,0,0,0,0,0,0,0,0,0,0,0,0,0,0,0,0,0,0,0],"id":7,"left_children":[1,3,5,7,9,11,13,15,17,19,21,23,25,27,-1,-1,-1,-1,-1,-1,29,-1,31,33,35,37,39,-1,41,-1,-1,-1,-1,43,45,47,49,51,53,55,57,59,61,-1,-1,-1,-1,-1,-1,-1,-1,-1,-1,-1,-1,-1,-1,-1,-1,-1,-1,-1,-1],"loss_changes":[4.4197564E0,1.7224617E0,3.9908679E0,5.240865E-1,1.9986519E0,3.4462807E0,1.7453856E0,9.2655694E-1,3.21496E-1,4.525009E0,1.587967E0,2.7159317E0,2.9659808E0,1.5901122E0,0E0,0E0,0E0,0E0,0E0,0E0,1.7764952E0,0E0,4.8977947E-1,3.7957623E0,2.9821935E0,3.2866578E0,8.7240267E-1,0E0,1.6700373E0,0E0,0E0,0E0,0E0,3.7137117E0,2.8816328E0,2.9340007E0,2.7713742E0,6.4648306E-1,1.4786613E-1,3.7216902E-1,2.1005816E0,2.1152945E0,1.0808668E0,0E0,0E0,0E0,0E0,0E0,0E0,0E0,0E0,0E0,0E0,0E0,0E0,0E0,0E0,0E0,0E0,0E0,0E0,0E0,0E0],"parents":[2147483647,0,0,1,1,2,2,3,3,4,4,5,5,6,6,7,7,8,8,9,9,10,10,11,11,12,12,13,13,20,20,22,22,23,23,24,24,25,25,26,26,28,28,33,33,34,34,35,35,36,36,37,37,38,38,39,39,40,40,41,41,42,42],"right_children":[2,4,6,8,10,12,14,16,18,20,22,24,26,28,-1,-1,-1,-1,-1,-1,30,-1,32,34,36,38,40,-1,42,-1,-1,-1,-1,44,46,48,50,52,54,56,58,60,62,-1,-1,-1,-1,-1,-1,-1,-1,-1,-1,-1,-1,-1,-1,-1,-1,-1,-1,-1,-1],"split_conditions":[-1.1182802E0,1.1531919E0,1.8106649E0,-1.0785259E0,-6.059499E-1,2.3600209E0,2.2895603E0,-1.2085756E0,9.7456574E-1,-9.2361915E-1,-4.6379724E-1,9.817884E-1,9.725429E-2,-6.8054634E-1,-1.1700094E-1,9.432152E-2,-1.8150231E-1,-2.7384362E-1,-4.1691907E-2,-2.073303E-1,2.0386623E-2,6.574992E-2,-4.938399E-1,7.6091313E-1,-1.2113451E0,9.817884E-1,6.239422E-1,-3.742131E-2,1.0984589E0,-2.119336E-2,4.2103928E-1,-1.3214301E-2,-2.5586736E-1,2.0386623E-2,6.697975E-3,1.6818113E0,2.1896086E0,2.6539052E0,5.355023E-1,1.0118685E0,6.31777E-1,-6.5526193E-1,1.0086992E-2,3.4711506E-2,-4.6655383E-2,-1.9808444E-3,-2.6428708E-1,3.670543E-2,4.354653E-1,1.1098296E-2,2.5875285E-1,-1.0011482E-2,2.3571917E-1,-5.3554263E-2,-2.6142722E-1,4.405209E-1,1.0269246E-1,-1.4970121E-1,2.7288434E-1,-2.3394432E-2,3.9410928E-1,2.0513055E-1,-5.949983E-2],"split_indices":[1,0,14,12,10,11,12,11,11,10,14,1,9,12,0,0,0,0,0,0,2,0,12,14,9,1,12,0,1,0,0,0,0,2,10,1,4,11,12,3,1,13,13,0,0,0,0,0,0,0,0,0,0,0,0,0,0,0,0,0,0,0,0],"split_type":[0,0,0,0,0,0,0,0,0,0,0,0,0,0,0,0,0,0,0,0,0,0,0,0,0,0,0,0,0,0,0,0,0,0,0,0,0,0,0,0,0,0,0,0,0,0,0,0,0,0,0,0,0,0,0,0,0,0,0,0,0,0,0],"sum_hessian":[3.8212643E2,2.1712553E1,3.6041388E2,1.0064831E1,1.1647722E1,3.4698398E2,1.3429885E1,2.5536797E0,7.5111513E0,4.6707463E0,6.976976E0,3.3493298E2,1.2050991E1,1.2273155E1,1.1567298E0,1.1866275E0,1.3670522E0,6.501985E0,1.0091661E0,1.8427926E0,2.8279536E0,2.0084589E0,4.9685173E0,2.2014917E2,1.1478382E2,6.234458E0,5.816533E0,1.9398171E0,1.0333338E1,1.0243351E0,1.8036186E0,1.0151521E0,3.9533653E0,2.0514313E2,1.5006037E1,6.0797353E0,1.0870409E2,3.6605885E0,2.5738692E0,3.4171655E0,2.3993678E0,6.4401727E0,3.893165E0,8.629849E1,1.1884464E2,6.1146502E0,8.891386E0,3.8808854E0,2.1988502E0,1.0546833E2,3.23576E0,1.2304798E0,2.4301088E0,1.0778538E0,1.4960155E0,2.2575917E0,1.1595739E0,1.0850279E0,1.3143398E0,1.1928978E0,5.247275E0,1.4678105E0,2.4253545E0],"tree_param":{"num_deleted":"0","num_feature":"15","num_nodes":"63","size_leaf_vector":"1"}},{"base_weights":[9.6840307E-4,-3.3702174E-1,2.6693216E-2,4.346774E-2,-7.831949E-1,1.7942246E-2,8.1225634E-1,-2.7886608E-1,9.010898E-1,-2.6232663E-1,1.5574823E-2,-1.8847273E-1,5.2963156E-2,2.1472452E-2,3.219087E-1,2.8616795E-1,-5.0104576E-1,4.7051188E-1,-8.21992E-2,-1.3745453E-2,-5.4535764E-1,2.903279E-1,4.4064112E-2,-6.971102E-1,1.9371036E-1,-1.0299675E-1,3.2045665E-1,-7.667805E-1,6.337282E-2,3.360268E-2,6.866813E-1,-9.701365E-3,-2.551089E-1,-1.1352778E-1,6.971762E-2,-2.6201886E-1,-6.700133E-2,-1.10007554E-1,2.0701124E-1,4.694409E-3,1.2677246E-1,2.2748142E-2,3.821824E-1],"categories":[],"categories_nodes":[],"categories_segments":[],"categories_sizes":[],"default_left":[0,0,0,0,0,0,0,0,0,0,0,0,0,0,0,0,0,0,0,0,0,0,0,0,0,0,0,0,0,0,0,0,0,0,0,0,0,0,0,0,0,0,0],"id":8,"left_children":[1,3,5,7,9,11,13,15,17,-1,-1,19,21,-1,-1,-1,23,-1,-1,25,27,-1,29,31,-1,33,-1,35,37,39,41,-1,-1,-1,-1,-1,-1,-1,-1,-1,-1,-1,-1],"loss_changes":[3.2980242E0,4.588517E0,2.408322E0,4.5160356E0,9.9015284E-1,2.5371096E0,6.6882443E-1,3.7582834E0,3.9195943E0,0E0,0E0,3.168264E0,2.3968444E0,0E0,0E0,0E0,2.879115E0,0E0,0E0,3.5105517E0,2.3012805E0,0E0,1.9790924E0,9.614148E-1,0E0,3.177338E0,0E0,5.1941967E-1,1.7033601E0,2.0473607E0,1.5963385E0,0E0,0E0,0E0,0E0,0E0,0E0,0E0,0E0,0E0,0E0,0E0,0E0],"parents":[2147483647,0,0,1,1,2,2,3,3,4,4,5,5,6,6,7,7,8,8,11,11,12,12,16,16,19,19,20,20,22,22,23,23,25,25,27,27,28,28,29,29,30,30],"right_children":[2,4,6,8,10,12,14,16,18,-1,-1,20,22,-1,-1,-1,24,-1,-1,26,28,-1,30,32,-1,34,-1,36,38,40,42,-1,-1,-1,-1,-1,-1,-1,-1,-1,-1,-1,-1],"split_conditions":[-1.0597632E0,-1.2412884E0,7.278122E0,-1.332051E0,1.4484704E0,-6.515983E-1,3.7581915E-1,-1.626362E0,-9.566747E-1,-2.6232663E-1,1.5574823E-2,4.2593008E-1,-1.0370724E0,2.1472452E-2,3.219087E-1,2.8616795E-1,1.1125469E0,4.7051188E-1,-8.21992E-2,8.483925E-1,1.7694755E0,2.903279E-1,1.2981525E1,-1.8803114E0,1.9371036E-1,9.292096E-1,3.2045665E-1,1.0563151E0,1.1424997E0,2.3600209E0,1.4484704E0,-9.701365E-3,-2.551089E-1,-1.1352778E-1,6.971762E-2,-2.6201886E-1,-6.700133E-2,-1.10007554E-1,2.0701124E-1,4.694409E-3,1.2677246E-1,2.2748142E-2,3.821824E-1],"split_indices":[10,10,14,10,1,1,12,12,11,0,0,13,10,0,0,0,9,0,0,14,4,0,6,11,0,4,0,12,11,11,1,0,0,0,0,0,0,0,0,0,0,0,0],"split_type":[0,0,0,0,0,0,0,0,0,0,0,0,0,0,0,0,0,0,0,0,0,0,0,0,0,0,0,0,0,0,0,0,0,0,0,0,0,0,0,0,0,0,0],"sum_hessian":[3.772782E2,2.5828234E1,3.5144998E2,1.4427373E1,1.1400861E1,3.4858963E2,2.860358E0,1.0976672E1,3.4507005E0,1.023565E1,1.1652111E0,4.9928257E1,2.9866138E2,1.0766852E0,1.7836728E0,1.1733001E0,9.803372E0,1.9874333E0,1.4632671E0,3.42153E1,1.5712955E1,1.8392856E0,2.9682208E2,8.706825E0,1.096547E0,3.2443745E1,1.7715573E0,1.1331526E1,4.381429E0,2.931028E2,3.7192512E0,1.8580551E0,6.84877E0,1.77438E1,1.46999445E1,8.965475E0,2.366051E0,2.844304E0,1.5371251E0,2.811647E2,1.1938114E1,2.376447E0,1.3428042E0],"tree_param":{"num_deleted":"0","num_feature":"15","num_nodes":"43","size_leaf_vector":"1"}},{"base_weights":[1.7807966E-3,-5.876079E-1,1.4087705E-2,7.1526825E-2,-8.769721E-1,7.2816894E-3,3.1455258E-1,-1.8246257E-1,1.9702652E-1,-6.658387E-2,-3.0197966E-1,-7.66967E-4,7.765049E-1,2.7483675E-1,-7.088312E-3,7.559956E-2,2.6795974E-1,-1.2277146E-1,4.430728E-2,-9.223038E-2,2.7138558E-3,6.3603826E-2,-5.6912024E-3],"categories":[],"categories_nodes":[],"categories_segments":[],"categories_sizes":[],"default_left":[0,0,0,0,0,0,0,0,0,0,0,0,0,0,0,0,0,0,0,0,0,0,0],"id":9,"left_children":[1,3,5,7,9,11,-1,-1,-1,-1,-1,13,15,-1,17,-1,-1,19,21,-1,-1,-1,-1],"loss_changes":[2.7258158E0,1.5287502E0,2.5829277E0,1.70006E0,2.3652887E-1,2.2700756E0,0E0,0E0,0E0,0E0,0E0,2.1148827E0,7.3034763E-3,0E0,2.1593502E0,0E0,0E0,2.7218633E0,2.6736493E0,0E0,0E0,0E0,0E0],"parents":[2147483647,0,0,1,1,2,2,3,3,4,4,5,5,11,11,12,12,14,14,17,17,18,18],"right_children":[2,4,6,8,10,12,-1,-1,-1,-1,-1,14,16,-1,18,-1,-1,20,22,-1,-1,-1,-1],"split_conditions":[-1.736454E0,-3.1204677E-1,3.797432E0,-5.344834E-1,4.842458E-2,7.278122E0,3.1455258E-1,-1.8246257E-1,1.9702652E-1,-6.658387E-2,-3.0197966E-1,-2.0687034E0,-9.5860325E-2,2.7483675E-1,-6.8245895E-2,7.559956E-2,2.6795974E-1,8.8943675E-2,-4.889247E-1,-9.223038E-2,2.7138558E-3,6.3603826E-2,-5.6912024E-3],"split_indices":[13,12,9,9,1,14,0,0,0,0,0,9,12,0,1,0,0,4,13,0,0,0,0],"split_type":[0,0,0,0,0,0,0,0,0,0,0,0,0,0,0,0,0,0,0,0,0,0,0],"sum_hessian":[3.7364923E2,6.6863804E0,3.6696283E2,2.269519E0,4.416861E0,3.6556464E2,1.3982086E0,1.0318134E0,1.2377058E0,1.1777394E0,3.2391217E0,3.6276785E2,2.7967663E0,1.498444E0,3.612694E2,1.0839964E0,1.71277E0,1.1070398E2,2.5056544E2,4.555449E1,6.514949E1,6.7998535E1,1.8256691E2],"tree_param":{"num_deleted":"0","num_feature":"15","num_nodes":"23","size_leaf_vector":"1"}},{"base_weights":[1.7528236E-3,-3.1028715E-1,1.8459834E-2,-4.0230665E-1,1.2514696E-1,-4.8083812E-1,2.8143253E-2,-5.5735594E-1,1.336544E-1,-7.800073E-1,5.4539204E-2,-5.3601664E-2,8.886365E-2,1.7334986E-1,-7.7813244E-1,2.1780781E-1,-1.9874075E-1,-6.2238548E-2,-2.740252E-1,6.546751E-2,-3.7714776E-1,1.137907E0,5.796552E-2,-1.8870176E-1,2.7605692E-1,-2.5289598E-1,-3.2004267E-2,-7.7941224E-2,2.5774434E-1,-1.4645901E-1,-6.808006E-1,4.8075402E-1,-1.9568747E-2,-3.0943814E-1,1.0696509E-1,-5.480354E-2,2.9049814E-1,2.4357642E-1,1.5796993E-3,3.6516838E-2,-1.7628948E-1,-2.347866E-1,9.59623E-2,7.408947E-2,-1.723211E-1,5.615807E-3,9.996306E-2],"categories":[],"categories_nodes":[],"categories_segments":[],"categories_sizes":[],"default_left":[0,0,0,0,0,0,0,0,0,0,0,0,0,0,0,0,0,0,0,0,0,0,0,0,0,0,0,0,0,0,0,0,0,0,0,0,0,0,0,0,0,0,0,0,0,0,0],"id":10,"left_children":[1,3,5,7,-1,9,11,13,15,17,-1,19,21,23,25,-1,-1,-1,-1,27,29,31,33,-1,-1,-1,-1,35,37,39,41,-1,-1,43,45,-1,-1,-1,-1,-1,-1,-1,-1,-1,-1,-1,-1],"loss_changes":[1.9486674E0,1.4394294E0,1.7284542E0,1.5181434E0,0E0,1.4905123E0,1.7365192E0,2.33981E0,2.699665E0,1.8296313E-1,0E0,5.7773705E0,6.4350986E0,2.9692585E0,3.750825E-1,0E0,0E0,0E0,0E0,3.0534499E0,2.7245708E0,3.2822008E0,3.559485E0,0E0,0E0,0E0,0E0,7.1659737E0,6.6038456E0,2.9330876E0,1.9959612E0,0E0,0E0,3.5779452E0,3.4592133E0,0E0,0E0,0E0,0E0,0E0,0E0,0E0,0E0,0E0,0E0,0E0,0E0],"parents":[2147483647,0,0,1,1,2,2,3,3,5,5,6,6,7,7,8,8,9,9,11,11,12,12,13,13,14,14,19,19,20,20,21,21,22,22,27,27,28,28,29,29,30,30,33,33,34,34],"right_children":[2,4,6,8,-1,10,12,14,16,18,-1,20,22,24,26,-1,-1,-1,-1,28,30,32,34,-1,-1,-1,-1,36,38,40,42,-1,-1,44,46,-1,-1,-1,-1,-1,-1,-1,-1,-1,-1,-1,-1],"split_conditions":[-1.1182802E0,1.2479193E0,-1.736454E0,7.074688E-1,1.2514696E-1,1.0134729E0,-1.1060031E-1,-1.2790313E0,1.1029917E0,-3.1204677E-1,5.4539204E-2,-3.9311665E-1,-9.5860325E-2,-1.549776E0,6.2969416E-1,2.1780781E-1,-1.9874075E-1,-6.2238548E-2,-2.740252E-1,2.9388636E-2,7.484475E-1,5.484955E-1,-8.5035217E-1,-1.8870176E-1,2.7605692E-1,-2.5289598E-1,-3.2004267E-2,1.2704813E0,-4.2167306E-1,5.9310323E-1,1.8982024E0,4.8075402E-1,-1.9568747E-2,-1.4369657E0,9.292096E-1,-5.480354E-2,2.9049814E-1,2.4357642E-1,1.5796993E-3,3.6516838E-2,-1.7628948E-1,-2.347866E-1,9.59623E-2,7.408947E-2,-1.723211E-1,5.615807E-3,9.996306E-2],"split_indices":[1,9,13,12,0,2,12,9,12,12,0,12,12,9,14,0,0,0,0,10,1,9,9,0,0,0,0,9,9,4,11,0,0,9,4,0,0,0,0,0,0,0,0,0,0,0,0],"split_type":[0,0,0,0,0,0,0,0,0,0,0,0,0,0,0,0,0,0,0,0,0,0,0,0,0,0,0,0,0,0,0,0,0,0,0,0,0,0,0,0,0,0,0,0,0,0,0],"sum_hessian":[3.7169214E2,1.7996468E1,3.5369568E2,1.637237E1,1.6240989E0,5.8034115E0,3.4789227E2,1.2667767E1,3.704603E0,3.8762286E0,1.9271829E0,1.4832574E2,1.9956651E2,2.9892013E0,9.678565E0,2.1745982E0,1.5300046E0,1.2153736E0,2.6608548E0,1.090073E2,3.9318447E1,4.6847186E0,1.9488179E2,1.5171026E0,1.4720986E0,8.593105E0,1.0854596E0,6.2778736E1,4.6228565E1,2.318605E1,1.6132397E1,3.1401598E0,1.5445589E0,2.2306948E1,1.7257484E2,5.7816395E1,4.962341E0,1.3775748E1,3.245282E1,1.48705635E1,8.315487E0,1.4840266E1,1.292131E0,7.2179203E0,1.5089027E1,1.2492949E2,4.764536E1],"tree_param":{"num_deleted":"0","num_feature":"15","num_nodes":"47","size_leaf_vector":"1"}},{"base_weights":[-1.7435851E-3,-1.1388338E-2,5.2144134E-1,-4.004703E-2,1.563776E-1,9.0745777E-1,-1.8364105E-1,-1.3570811E-1,5.7548217E-2,2.3428021E-1,-2.7511677E-1,-9.505014E-2,1.3519454E0,-1.9689281E-1,1.1873694E-1,-1.1223897E-2,-2.279419E-1,-1.3937119E-1,1.5191603E-1,-3.0115032E-1,3.9912203E-1,4.9653184E-1,1.02314554E-1,-1.0719631E-1,5.4346615E-1,-3.1199068E-1,1.5220262E-1,-2.029559E-1,5.846485E-1,-2.4273263E-1,2.1778399E-1,1.6275612E-1,-9.180773E-1,1.3000213E-1,6.380578E-1,1.3632166E-1,-5.1442895E-2,-7.415692E-4,3.7118313E-1,-1.1021162E-1,1.3283487E-1,2.0170137E-1,-7.890822E-2,2.1524476E-1,-7.919328E-2,-1.6532844E-1,3.9116472E-1,1.742696E-1,-1.7869376E-1,1.8977137E-1,4.118666E-2,2.1413235E-1,-1.1396425E-1,-9.263304E-2,-3.0697784E-1,-1.4604494E-1,1.1583725E-1,4.2347586E-1,9.539543E-2],"categories":[],"categories_nodes":[],"categories_segments":[],"categories_sizes":[],"default_left":[0,0,0,0,0,0,0,0,0,0,0,0,0,0,0,0,0,0,0,0,0,0,0,0,0,0,0,0,0,0,0,0,0,0,0,0,0,0,0,0,0,0,0,0,0,0,0,0,0,0,0,0,0,0,0,0,0,0,0],"id":11,"left_children":[1,3,5,7,9,11,13,15,17,19,-1,-1,21,-1,-1,23,25,27,29,31,33,-1,-1,35,37,39,41,43,45,47,49,51,53,55,57,-1,-1,-1,-1,-1,-1,-1,-1,-1,-1,-1,-1,-1,-1,-1,-1,-1,-1,-1,-1,-1,-1,-1,-1],"loss_changes":[1.873235E0,1.7579714E0,1.9955835E0,2.9204264E0,4.6770782E0,2.8829856E0,1.138651E0,1.809778E0,2.9039006E0,4.581547E0,0E0,0E0,5.0788116E-1,0E0,0E0,3.6904862E0,2.9427333E0,2.4563131E0,2.79141E0,3.7178807E0,2.429891E0,0E0,0E0,2.2078595E0,3.8774502E0,3.2783275E0,3.8655918E0,2.8528864E0,4.2777276E0,4.863379E0,2.9451165E0,2.653104E0,3.6666393E-2,3.2898114E0,4.6128283E0,0E0,0E0,0E0,0E0,0E0,0E0,0E0,0E0,0E0,0E0,0E0,0E0,0E0,0E0,0E0,0E0,0E0,0E0,0E0,0E0,0E0,0E0,0E0,0E0],"parents":[2147483647,0,0,1,1,2,2,3,3,4,4,5,5,6,6,7,7,8,8,9,9,12,12,15,15,16,16,17,17,18,18,19,19,20,20,23,23,24,24,25,25,26,26,27,27,28,28,29,29,30,30,31,31,32,32,33,33,34,34],"right_children":[2,4,6,8,10,12,14,16,18,20,-1,-1,22,-1,-1,24,26,28,30,32,34,-1,-1,36,38,40,42,44,46,48,50,52,54,56,58,-1,-1,-1,-1,-1,-1,-1,-1,-1,-1,-1,-1,-1,-1,-1,-1,-1,-1,-1,-1,-1,-1,-1,-1],"split_conditions":[2.83782E0,1.5651408E0,1.1412311E0,1.1531919E0,1.6734594E0,1.3489598E-1,3.9056104E-1,-1.5556002E-2,-3.5635263E-1,-3.3257827E-1,-2.7511677E-1,-9.505014E-2,1.1812893E0,-1.9689281E-1,1.1873694E-1,-1.05804235E-1,4.109959E-1,9.358718E-1,-8.7291425E-1,-5.5127656E-1,2.1006459E-1,4.9653184E-1,1.02314554E-1,-1.2412884E0,5.1830566E-1,1.6734594E0,7.6091313E-1,-1.5444435E0,2.0386623E-2,-6.9282967E-1,-1.7482732E-1,1.4900888E0,-4.6379724E-1,9.746062E-2,-4.5287284E-1,1.3632166E-1,-5.1442895E-2,-7.415692E-4,3.7118313E-1,-1.1021162E-1,1.3283487E-1,2.0170137E-1,-7.890822E-2,2.1524476E-1,-7.919328E-2,-1.6532844E-1,3.9116472E-1,1.742696E-1,-1.7869376E-1,1.8977137E-1,4.118666E-2,2.1413235E-1,-1.1396425E-1,-9.263304E-2,-3.0697784E-1,-1.4604494E-1,1.1583725E-1,4.2347586E-1,9.539543E-2],"split_indices":[13,1,10,0,13,11,9,9,10,14,0,0,4,0,0,9,14,14,9,14,9,0,0,10,12,13,14,11,2,12,10,7,14,10,11,0,0,0,0,0,0,0,0,0,0,0,0,0,0,0,0,0,0,0,0,0,0,0,0],"split_type":[0,0,0,0,0,0,0,0,0,0,0,0,0,0,0,0,0,0,0,0,0,0,0,0,0,0,0,0,0,0,0,0,0,0,0,0,0,0,0,0,0,0,0,0,0,0,0,0,0,0,0,0,0,0,0,0,0,0,0],"sum_hessian":[3.6905554E2,3.633358E2,5.7197504E0,3.109747E2,5.2361103E1,3.5106995E0,2.209051E0,1.568463E2,1.5412839E2,4.9547054E1,2.8140469E0,1.0115877E0,2.499112E0,1.1435363E0,1.0655146E0,6.723016E1,8.9616135E1,4.9778206E1,1.0435018E2,1.1468564E1,3.807849E1,1.4323081E0,1.0668038E0,5.8001495E1,9.228666E0,7.353668E1,1.6079453E1,4.6421104E1,3.357103E0,1.454121E1,8.9808975E1,6.9663258E0,4.5022388E0,1.863428E1,1.9444212E1,5.333611E0,5.2667885E1,5.7223587E0,3.5063076E0,6.8987976E1,4.5487084E0,6.8631625E0,9.216291E0,2.2173426E0,4.4203762E1,1.3922981E0,1.9648051E0,4.1679683E0,1.0373241E1,1.3481417E1,7.632756E1,3.2999868E0,3.666339E0,1.2421772E0,3.2600613E0,5.2030516E0,1.3431228E1,4.692802E0,1.475141E1],"tree_param":{"num_deleted":"0","num_feature":"15","num_nodes":"59","size_leaf_vector":"1"}},{"base_weights":[-1.4051041E-3,-2.5805172E-1,1.5982391E-2,2.5398526E-1,-5.167939E-1,-2.0723222E-1,2.363119E-2,-6.342729E-2,3.6819035E-1,-2.1022262E-1,-2.6403007E-1,3.0912673E-1,1.6433144E-3,2.1458466E-1,-3.670036E-1,-6.9575864E-1,2.571827E-1,1.1534684E0,1.1291794E-1,-4.6612634E-3,2.3980176E-1,-2.1940297E-1,1.9752206E-2,-2.472856E-1,-4.3800667E-2,9.559286E-1,-4.921213E-1,5.71824E-2,5.461751E-1,-1.7073257E-1,8.498735E-1,-1.101137E-2,2.3585792E-1,-8.824926E-2,9.947197E-2,-3.3843987E-2,4.5332506E-1,-2.4931787E-3,-2.0824324E-1,1.486469E-1,-2.253327E-1,3.2638264E-1,-2.6360994E-2,2.3828904E-1,-5.133413E-3],"categories":[],"categories_nodes":[],"categories_segments":[],"categories_sizes":[],"default_left":[0,0,0,0,0,0,0,0,0,0,0,0,0,0,0,0,0,0,0,0,0,0,0,0,0,0,0,0,0,0,0,0,0,0,0,0,0,0,0,0,0,0,0,0,0],"id":12,"left_children":[1,3,5,7,9,-1,11,13,-1,15,-1,17,19,-1,21,23,25,27,29,31,-1,-1,33,-1,-1,35,37,-1,-1,39,41,43,-1,-1,-1,-1,-1,-1,-1,-1,-1,-1,-1,-1,-1],"loss_changes":[1.6376988E0,3.2162676E0,1.8747766E0,2.6999066E0,1.5745983E0,0E0,2.1405537E0,2.0002518E0,0E0,2.4215903E0,0E0,3.9094582E0,1.6014217E0,0E0,8.5285157E-1,2.412045E-1,3.4889102E0,2.536747E0,4.512942E0,1.5965714E0,0E0,0E0,4.7536364E-1,0E0,0E0,2.142105E0,3.3066285E-1,0E0,0E0,6.527976E0,1.4293876E0,1.5593154E0,0E0,0E0,0E0,0E0,0E0,0E0,0E0,0E0,0E0,0E0,0E0,0E0,0E0],"parents":[2147483647,0,0,1,1,2,2,3,3,4,4,6,6,7,7,9,9,11,11,12,12,14,14,15,15,16,16,17,17,18,18,19,19,22,22,25,25,26,26,29,29,30,30,31,31],"right_children":[2,4,6,8,10,-1,12,14,-1,16,-1,18,20,-1,22,24,26,28,30,32,-1,-1,34,-1,-1,36,38,-1,-1,40,42,44,-1,-1,-1,-1,-1,-1,-1,-1,-1,-1,-1,-1,-1],"split_conditions":[-1.0597632E0,-3.7631792E-1,-1.7123774E0,-7.8874075E-1,-1.2639791E0,-2.0723222E-1,-1.0406417E0,-1.8803114E0,3.6819035E-1,-4.1825733E-1,-2.6403007E-1,-1.071105E0,3.797432E0,2.1458466E-1,8.8943675E-2,-1.0406417E0,1.1531919E0,-8.324218E-2,1.4484704E0,8.240395E0,2.3980176E-1,-2.1940297E-1,-4.029433E-1,-2.472856E-1,-4.3800667E-2,-3.539869E-1,-1.3345261E0,5.71824E-2,5.461751E-1,-2.013593E-1,7.3195603E-3,-2.0687034E0,2.3585792E-1,-8.824926E-2,9.947197E-2,-3.3843987E-2,4.5332506E-1,-2.4931787E-3,-2.0824324E-1,1.486469E-1,-2.253327E-1,3.2638264E-1,-2.6360994E-2,2.3828904E-1,-5.133413E-3],"split_indices":[10,14,11,11,10,0,11,11,0,1,0,13,9,0,4,11,0,9,1,14,0,0,12,0,0,9,11,0,0,14,12,9,0,0,0,0,0,0,0,0,0,0,0,0,0],"split_type":[0,0,0,0,0,0,0,0,0,0,0,0,0,0,0,0,0,0,0,0,0,0,0,0,0,0,0,0,0,0,0,0,0,0,0,0,0,0,0,0,0,0,0,0,0],"sum_hessian":[3.650719E2,2.2285625E1,3.4278625E2,7.4872136E0,1.4798411E1,2.713835E0,3.4007242E2,6.3509192E0,1.136294E0,8.882049E0,5.9163632E0,2.3384453E1,3.16688E2,1.4010001E0,4.949919E0,4.1168995E0,4.765149E0,3.489476E0,1.9894976E1,3.15191E2,1.4969511E0,2.090044E0,2.8598752E0,2.932054E0,1.1848452E0,2.3230696E0,2.4420798E0,1.9543885E0,1.5350873E0,1.4920485E1,4.9744925E0,3.136586E2,1.5324225E0,1.4533669E0,1.4065083E0,1.0665734E0,1.2564963E0,1.0260348E0,1.4160448E0,7.0145946E0,7.90589E0,3.8395581E0,1.1349342E0,1.3866292E0,3.1227197E2],"tree_param":{"num_deleted":"0","num_feature":"15","num_nodes":"45","size_leaf_vector":"1"}},{"base_weights":[4.1119015E-4,-4.3599683E-1,8.335198E-3,5.077932E-2,-7.425306E-1,-2.20843E-1,2.2369355E-2,-2.5796387E-1,-5.1285993E-2,9.727826E-2,-5.813717E-1,3.5132042E-1,4.4690804E-3,-3.1463546E-1,4.7515702E-1,-8.31392E-1,8.8155136E-2,9.441802E-1,-4.8573683E-3,-1.8596363E-1,3.113212E-2,2.1299614E-1,-5.4377437E-1,-3.323421E-1,-2.983581E-1,-7.646844E-2,1.4381163E0,-3.5661396E-1,8.757399E-1,-3.1037745E-1,8.072102E-1,4.5117867E-1,5.2561695E-3,-2.008421E-1,6.603082E-2,-2.021772E-1,7.083059E-2,1.8106158E-1,5.151576E-1,1.8961453E-1,-2.3130511E-1,3.5606858E-1,4.0360045E-2,-4.3400384E-2,-1.8034714E-1,6.2078893E-2,3.215856E-1,3.0407235E-1,-9.2341835E-3,-1.2990755E-1,8.72983E-3],"categories":[],"categories_nodes":[],"categories_segments":[],"categories_sizes":[],"default_left":[0,0,0,0,0,0,0,0,0,0,0,0,0,0,0,0,0,0,0,0,0,0,0,0,0,0,0,0,0,0,0,0,0,0,0,0,0,0,0,0,0,0,0,0,0,0,0,0,0,0,0],"id":13,"left_children":[1,3,5,-1,7,9,11,-1,-1,13,15,17,19,21,-1,23,-1,25,27,29,31,-1,33,35,-1,-1,37,39,41,43,45,47,49,-1,-1,-1,-1,-1,-1,-1,-1,-1,-1,-1,-1,-1,-1,-1,-1,-1,-1],"loss_changes":[1.2615442E0,1.332732E0,1.1571933E0,0E0,1.5512204E-1,2.438049E0,1.9915501E0,0E0,0E0,7.77759E0,2.4055617E0,3.6906028E0,1.64091E0,2.7673612E0,0E0,3.1616402E-1,0E0,4.2496634E0,3.9982145E0,5.155355E0,3.0772507E0,0E0,9.9762034E-1,8.3071E-1,0E0,0E0,8.019924E-2,4.262147E0,6.903994E-1,1.6475804E0,5.2456784E-1,4.484496E0,2.8122506E0,0E0,0E0,0E0,0E0,0E0,0E0,0E0,0E0,0E0,0E0,0E0,0E0,0E0,0E0,0E0,0E0,0E0,0E0],"parents":[2147483647,0,0,1,1,2,2,4,4,5,5,6,6,9,9,10,10,11,11,12,12,13,13,15,15,17,17,18,18,19,19,20,20,22,22,23,23,26,26,27,27,28,28,29,29,30,30,31,31,32,32],"right_children":[2,4,6,-1,8,10,12,-1,-1,14,16,18,20,22,-1,24,-1,26,28,30,32,-1,34,36,-1,-1,38,40,42,44,46,48,50,-1,-1,-1,-1,-1,-1,-1,-1,-1,-1,-1,-1,-1,-1,-1,-1,-1,-1],"split_conditions":[-1.736454E0,-3.3257827E-1,-8.137145E-1,5.077932E-2,4.605112E-1,2.9568115E-2,-6.8249553E-1,-2.5796387E-1,-5.1285993E-2,-1.05804235E-1,1.3381675E0,-2.0097192E-1,-4.6379724E-1,-1.4820898E0,4.7515702E-1,-2.0097192E-1,8.8155136E-2,-9.916912E-1,1.3000658E0,1.3407849E0,-3.7631792E-1,2.1299614E-1,1.3317999E0,-4.5287284E-1,-2.983581E-1,-7.646844E-2,8.8943675E-2,-5.349278E-1,1.0984589E0,3.67999E-1,1.4900888E0,-1.5625025E-1,-1.0597632E0,-2.008421E-1,6.603082E-2,-2.021772E-1,7.083059E-2,1.8106158E-1,5.151576E-1,1.8961453E-1,-2.3130511E-1,3.5606858E-1,4.0360045E-2,-4.3400384E-2,-1.8034714E-1,6.2078893E-2,3.215856E-1,3.0407235E-1,-9.2341835E-3,-1.2990755E-1,8.72983E-3],"split_indices":[13,14,14,0,10,9,14,0,0,9,9,11,14,9,0,11,0,10,10,13,14,0,1,11,0,0,4,1,1,9,7,13,10,0,0,0,0,0,0,0,0,0,0,0,0,0,0,0,0,0,0],"split_type":[0,0,0,0,0,0,0,0,0,0,0,0,0,0,0,0,0,0,0,0,0,0,0,0,0,0,0,0,0,0,0,0,0,0,0,0,0,0,0,0,0,0,0,0,0,0,0,0,0,0,0],"sum_hessian":[3.6275754E2,5.505839E0,3.5725168E2,2.0015407E0,3.5042982E0,1.9764282E1,3.374874E2,2.4889092E0,1.015389E0,1.0887559E1,8.876723E0,1.6455746E1,3.2103168E2,9.1426E0,1.7449594E0,6.9433346E0,1.933388E0,5.5563326E0,1.0899414E1,3.869435E1,2.823373E2,1.2873877E0,7.855212E0,2.4587972E0,4.4845376E0,1.7622534E0,3.7940793E0,8.2135315E0,2.6858823E0,3.4997715E1,3.696637E0,1.5429686E1,2.6690762E2,6.851373E0,1.003839E0,1.4199692E0,1.038828E0,1.7433156E0,2.0507638E0,2.2707899E0,5.9427414E0,1.4682254E0,1.217657E0,2.3247147E1,1.1750567E1,1.6766336E0,2.0200033E0,6.611606E0,8.81808E0,1.2885632E1,2.5402199E2],"tree_param":{"num_deleted":"0","num_feature":"15","num_nodes":"51","size_leaf_vector":"1"}},{"base_weights":[6.4854755E-4,-4.0583163E-3,2.525687E-1,-2.6179153E-1,8.630314E-3,3.5994783E-1,-3.8856605E-1,7.315751E-2,-4.674947E-2,2.2396247E-1,-4.8929233E-2,-5.6498295E-1,1.6300276E-1,1.8803936E-1,-4.2232372E-2,-9.3388796E-2,3.616835E-1,8.13261E-2,-6.8445945E-1,6.99767E-1,-1.8727241E-1,7.641809E-1,1.1876855E-1,-3.7026617E-1,7.277052E-2,-2.03932E-1,6.362984E-2,1.0762817E0,1.795505E-2,-2.4707672E-1,7.9823636E-2,2.6788434E-1,4.8936326E-2,1.0577159E-1,4.6385974E-1,5.8839243E-2,-9.7829714E-2,1.1111873E-1,-1.5579222E-1,5.1945638E-2,-1.405039E-1,-1.1615888E-1,-2.6475573E-3,1.20639384E-1,-3.476513E-2,5.7164766E-2,4.598409E-1,-9.361428E-2,1.618533E-1],"categories":[],"categories_nodes":[],"categories_segments":[],"categories_sizes":[],"default_left":[0,0,0,0,0,0,0,0,0,0,0,0,0,0,0,0,0,0,0,0,0,0,0,0,0,0,0,0,0,0,0,0,0,0,0,0,0,0,0,0,0,0,0,0,0,0,0,0,0],"id":14,"left_children":[1,3,-1,5,7,9,11,13,15,-1,-1,17,19,21,23,25,27,-1,29,31,-1,33,35,37,39,41,43,45,47,-1,-1,-1,-1,-1,-1,-1,-1,-1,-1,-1,-1,-1,-1,-1,-1,-1,-1,-1,-1],"loss_changes":[1.4353819E0,1.1816003E0,0E0,1.4761084E0,1.2351018E0,8.073206E-1,1.5091183E0,2.1233425E0,3.5786614E0,0E0,0E0,1.3100615E0,2.256013E0,3.1079504E0,3.0611408E0,2.9258013E0,4.715745E0,0E0,1.5592828E0,1.685915E-1,0E0,2.1645403E0,2.5670438E0,2.5151672E0,3.3612387E0,3.5264292E0,4.305968E0,2.2327414E0,2.5837045E0,0E0,0E0,0E0,0E0,0E0,0E0,0E0,0E0,0E0,0E0,0E0,0E0,0E0,0E0,0E0,0E0,0E0,0E0,0E0,0E0],"parents":[2147483647,0,0,1,1,3,3,4,4,5,5,6,6,7,7,8,8,11,11,12,12,13,13,14,14,15,15,16,16,18,18,19,19,21,21,22,22,23,23,24,24,25,25,26,26,27,27,28,28],"right_children":[2,4,-1,6,8,10,12,14,16,-1,-1,18,20,22,24,26,28,-1,30,32,-1,34,36,38,40,42,44,46,48,-1,-1,-1,-1,-1,-1,-1,-1,-1,-1,-1,-1,-1,-1,-1,-1,-1,-1,-1,-1],"split_conditions":[4.4066076E0,-1.1182802E0,2.525687E-1,-1.071105E0,2.9568115E-2,-5.110365E-1,3.867969E-1,2.0386623E-2,2.026167E0,2.2396247E-1,-4.8929233E-2,-1.670394E0,9.727885E-1,-1.4369657E0,-8.954763E-1,4.9170824E-3,2.2757642E0,8.13261E-2,7.6091313E-1,1.1424997E0,-1.8727241E-1,-1.549776E0,6.2969416E-1,-1.2873423E0,1.1424997E0,9.817884E-1,-2.429554E-1,9.325561E-2,1.4484704E0,-2.4707672E-1,7.9823636E-2,2.6788434E-1,4.8936326E-2,1.0577159E-1,4.6385974E-1,5.8839243E-2,-9.7829714E-2,1.1111873E-1,-1.5579222E-1,5.1945638E-2,-1.405039E-1,-1.1615888E-1,-2.6475573E-3,1.20639384E-1,-3.476513E-2,5.7164766E-2,4.598409E-1,-9.361428E-2,1.618533E-1],"split_indices":[9,1,0,13,9,12,11,2,10,0,0,11,12,9,9,4,10,0,14,11,0,9,14,12,11,1,11,13,1,0,0,0,0,0,0,0,0,0,0,0,0,0,0,0,0,0,0,0,0],"split_type":[0,0,0,0,0,0,0,0,0,0,0,0,0,0,0,0,0,0,0,0,0,0,0,0,0,0,0,0,0,0,0,0,0,0,0,0,0,0,0,0,0,0,0,0,0,0,0,0,0],"sum_hessian":[3.606407E2,3.5962375E2,1.016956E0,1.5952964E1,3.4367078E2,2.3904114E0,1.3562552E1,1.5857822E2,1.8509256E2,1.1287963E0,1.261615E0,1.0257436E1,3.3051171E0,7.9148544E1,7.942967E1,1.6681514E2,1.8277422E1,1.123872E0,9.133563E0,2.0312645E0,1.2738526E0,7.418163E0,7.1730385E1,2.0042086E1,5.938759E1,9.772011E1,6.909503E1,5.2440486E0,1.3033373E1,8.083886E0,1.0496771E0,1.0054004E0,1.0258641E0,5.810632E0,1.6075305E0,6.158066E1,1.014972E1,3.1086128E0,1.6933474E1,5.066823E1,8.71936E0,4.988164E1,4.7838467E1,2.3514532E1,4.5580498E1,2.2656596E0,2.9783893E0,8.228607E0,4.8047657E0],"tree_param":{"num_deleted":"0","num_feature":"15","num_nodes":"49","size_leaf_vector":"1"}},{"base_weights":[1.5063377E-3,-2.5180997E-3,2.1454553E-1,-3.9622728E-2,7.958291E-2,-1.9066986E-2,-4.464604E-1,5.9010136E-1,1.8667398E-2,3.0851418E-1,-4.7573682E-2,-6.864585E-1,7.177411E-2,-6.663314E-2,9.3627024E-1,-5.901338E-2,3.0987358E-1,7.432327E-1,-1.7816901E-1,-6.5465367E-1,-2.9464979E-2,-8.7172943E-1,1.00852065E-2,-1.5346453E-1,1.9767971E-1,-2.330462E-1,1.866229E-1,1.5136075E0,-1.6576697E-1,1.5052612E-1,-2.7282307E-1,-7.302319E-2,8.194161E-1,-9.3642704E-2,3.2226658E-1,3.3388913E-1,-1.3602625E-1,-2.4834406E-1,3.1264946E-2,-1.4899289E-2,1.420822E-1,-2.9072526E-1,-9.800442E-2,5.6159824E-1,3.7738696E-2,7.559821E-2,-1.6566238E-1,-2.5606856E-2,2.2766106E-1,-1.2913455E-1,9.501078E-2,-1.8411309E-1,7.091579E-2,4.0520927E-1,3.0881427E-3],"categories":[],"categories_nodes":[],"categories_segments":[],"categories_sizes":[],"default_left":[0,0,0,0,0,0,0,0,0,0,0,0,0,0,0,0,0,0,0,0,0,0,0,0,0,0,0,0,0,0,0,0,0,0,0,0,0,0,0,0,0,0,0,0,0,0,0,0,0,0,0,0,0,0,0],"id":15,"left_children":[1,3,-1,5,7,9,11,13,15,17,19,21,23,25,27,29,31,33,35,37,39,41,-1,-1,-1,-1,-1,43,45,47,49,51,53,-1,-1,-1,-1,-1,-1,-1,-1,-1,-1,-1,-1,-1,-1,-1,-1,-1,-1,-1,-1,-1,-1],"loss_changes":[1.0320715E0,1.0928596E0,0E0,2.057411E0,3.461931E0,2.220365E0,1.5214665E0,2.7614002E0,2.2985785E0,4.161263E0,2.3789992E0,1.1212304E0,1.9303759E0,2.9441695E0,5.2395177E0,3.6438434E0,4.2325573E0,3.9163857E0,3.9842114E0,9.104247E-1,2.1867957E0,3.0820847E-2,0E0,0E0,0E0,0E0,0E0,2.372692E0,7.198156E-1,5.985219E0,3.8679876E0,2.3415349E0,3.9658346E0,0E0,0E0,0E0,0E0,0E0,0E0,0E0,0E0,0E0,0E0,0E0,0E0,0E0,0E0,0E0,0E0,0E0,0E0,0E0,0E0,0E0,0E0],"parents":[2147483647,0,0,1,1,3,3,4,4,5,5,6,6,7,7,8,8,9,9,10,10,11,11,12,12,13,13,14,14,15,15,16,16,17,17,18,18,19,19,20,20,21,21,27,27,28,28,29,29,30,30,31,31,32,32],"right_children":[2,4,-1,6,8,10,12,14,16,18,20,22,24,26,28,30,32,34,36,38,40,42,-1,-1,-1,-1,-1,44,46,48,50,52,54,-1,-1,-1,-1,-1,-1,-1,-1,-1,-1,-1,-1,-1,-1,-1,-1,-1,-1,-1,-1,-1,-1],"split_conditions":[4.4066076E0,5.355023E-1,2.1454553E-1,4.544324E-1,6.239422E-1,-1.2564692E0,1.9229761E-1,-1.5761964E-1,1.0134729E0,2.0386623E-2,-1.7295419E0,1.091279E0,1.4900888E0,1.3489598E-1,1.9229761E-1,1.1472117E0,1.181605E0,-4.1088936E-1,-1.7295419E0,2.7898592E-1,5.7599845E0,-7.0140325E-2,1.00852065E-2,-1.5346453E-1,1.9767971E-1,-2.330462E-1,1.866229E-1,8.8943675E-2,1.0086992E-2,9.8752844E-1,1.1744477E0,-3.0886278E-1,-5.8326906E-1,-9.3642704E-2,3.2226658E-1,3.3388913E-1,-1.3602625E-1,-2.4834406E-1,3.1264946E-2,-1.4899289E-2,1.420822E-1,-2.9072526E-1,-9.800442E-2,5.6159824E-1,3.7738696E-2,7.559821E-2,-1.6566238E-1,-2.5606856E-2,2.2766106E-1,-1.2913455E-1,9.501078E-2,-1.8411309E-1,7.091579E-2,4.0520927E-1,3.0881427E-3],"split_indices":[9,12,0,12,12,9,14,14,2,2,12,13,7,11,14,12,12,11,12,10,5,14,0,0,0,0,0,4,13,12,13,9,4,0,0,0,0,0,0,0,0,0,0,0,0,0,0,0,0,0,0,0,0,0,0],"split_type":[0,0,0,0,0,0,0,0,0,0,0,0,0,0,0,0,0,0,0,0,0,0,0,0,0,0,0,0,0,0,0,0,0,0,0,0,0,0,0,0,0,0,0,0,0,0,0,0,0,0,0,0,0,0,0],"sum_hessian":[3.5772668E2,3.5671158E2,1.0151205E0,2.4603583E2,1.10675735E2,2.3519911E2,1.0836723E1,1.0872092E1,9.980364E1,1.8042576E1,2.1715652E2,7.1847873E0,3.6519365E0,4.0314107E0,6.8406816E0,7.941628E1,2.0387362E1,9.251631E0,8.790945E0,5.2718134E0,2.1188472E2,5.5469775E0,1.6378098E0,1.8965492E0,1.7553873E0,1.9217709E0,2.1096396E0,4.243911E0,2.5967708E0,4.025815E1,3.9158134E1,1.2129393E1,8.257969E0,2.2223852E0,7.0292454E0,1.0099764E0,7.7809687E0,4.2184033E0,1.0534099E0,2.0457204E2,7.3126807E0,4.0462666E0,1.5007107E0,3.0956202E0,1.1482904E0,1.4149996E0,1.1817712E0,2.962925E1,1.06289E1,3.1109911E1,8.0482235E0,4.0567684E0,8.072624E0,4.5808077E0,3.6771615E0],"tree_param":{"num_deleted":"0","num_feature":"15","num_nodes":"55","size_leaf_vector":"1"}},{"base_weights":[8.5845345E-4,-2.1473522E-1,1.3276845E-2,-3.4271225E-1,5.715957E-1,2.7813977E-1,-1.6101667E-3,1.155701E-1,-4.3254337E-1,2.3280996E-1,2.5748974E-2,6.261314E-1,-2.1482542E-1,-4.4930163E-1,6.117558E-3,-6.0638964E-1,-1.0140791E-2,1.2479844E-1,1.1037599E0,3.142636E-1,-5.846173E-1,4.913463E-2,-6.853194E-1,1.2695871E-1,-3.7058633E-2,-1.9487639E-1,-2.8026018E-1,1.5720755E-1,-3.3328712E-1,-3.57941E-1,5.9830266E-1,4.607285E-2,1.4008693E0,-8.656215E-1,1.2971099E-1,-4.8805848E-2,-2.4423903E-1,3.6997828E-1,-8.853868E-2,-9.211827E-2,1.4243574E-1,-1.387026E-1,1.2354333E-1,5.1346563E-2,-1.7252173E-1,-2.1246749E-1,7.131658E-2,1.77121E-2,2.68393E-1,6.174946E-1,1.23262264E-1,-8.0843635E-2,-2.873941E-1,6.381771E-2,2.5443467E-1,-6.1017167E-2,1.9099386E-1,-3.2122627E-2,2.0291229E-1,2.1790043E-2,2.7022877E-1],"categories":[],"categories_nodes":[],"categories_segments":[],"categories_sizes":[],"default_left":[0,0,0,0,0,0,0,0,0,0,0,0,0,0,0,0,0,0,0,0,0,0,0,0,0,0,0,0,0,0,0,0,0,0,0,0,0,0,0,0,0,0,0,0,0,0,0,0,0,0,0,0,0,0,0,0,0,0,0,0,0],"id":16,"left_children":[1,3,5,7,9,11,13,-1,15,-1,-1,17,19,21,23,25,27,29,31,-1,33,-1,35,37,39,41,-1,-1,43,45,47,-1,49,51,-1,-1,-1,53,55,57,59,-1,-1,-1,-1,-1,-1,-1,-1,-1,-1,-1,-1,-1,-1,-1,-1,-1,-1,-1,-1],"loss_changes":[9.552653E-1,2.1514597E0,1.3304297E0,1.3003957E0,2.4074078E-1,3.2147083E0,1.1110264E0,0E0,1.1617651E0,0E0,0E0,2.4437242E0,4.4284105E0,9.007306E-1,1.6528798E0,1.3355885E0,1.1506467E0,1.6741738E0,1.3074737E0,0E0,2.364508E0,0E0,1.4541185E-1,4.3995275E0,2.3209062E0,1.2048755E0,0E0,0E0,6.026638E-1,9.5883864E-1,5.2229404E-1,0E0,1.7483783E0,6.06184E-2,0E0,0E0,0E0,2.7806554E0,3.8775575E0,2.133438E0,2.8568969E0,0E0,0E0,0E0,0E0,0E0,0E0,0E0,0E0,0E0,0E0,0E0,0E0,0E0,0E0,0E0,0E0,0E0,0E0,0E0,0E0],"parents":[2147483647,0,0,1,1,2,2,3,3,4,4,5,5,6,6,8,8,11,11,12,12,13,13,14,14,15,15,16,16,17,17,18,18,20,20,22,22,23,23,24,24,25,25,28,28,29,29,30,30,32,32,33,33,37,37,38,38,39,39,40,40],"right_children":[2,4,6,8,10,12,14,-1,16,-1,-1,18,20,22,24,26,28,30,32,-1,34,-1,36,38,40,42,-1,-1,44,46,48,-1,50,52,-1,-1,-1,54,56,58,60,-1,-1,-1,-1,-1,-1,-1,-1,-1,-1,-1,-1,-1,-1,-1,-1,-1,-1,-1,-1],"split_conditions":[-8.137145E-1,1.2159982E0,-6.8249553E-1,-1.4820898E0,4.151299E-1,5.484955E-1,-1.736454E0,1.155701E-1,1.2151294E0,2.3280996E-1,2.5748974E-2,-7.262352E-1,-6.1667305E-1,-3.3257827E-1,-5.7209337E-1,-6.8245895E-2,-8.009229E-1,2.5699687E-1,-4.5287284E-1,3.142636E-1,1.3944006E0,4.913463E-2,4.842458E-2,2.0386623E-2,1.0134729E0,1.7694755E0,-2.8026018E-1,1.5720755E-1,-9.8867315E-1,4.7162905E-1,-4.1825733E-1,4.607285E-2,-2.6558998E-1,-5.349278E-1,1.2971099E-1,-4.8805848E-2,-2.4423903E-1,-7.3843056E-1,5.422149E-1,1.2981525E1,2.026167E0,-1.387026E-1,1.2354333E-1,5.1346563E-2,-1.7252173E-1,-2.1246749E-1,7.131658E-2,1.77121E-2,2.68393E-1,6.174946E-1,1.23262264E-1,-8.0843635E-2,-2.873941E-1,6.381771E-2,2.5443467E-1,-6.1017167E-2,1.9099386E-1,-3.2122627E-2,2.0291229E-1,2.1790043E-2,2.7022877E-1],"split_indices":[14,12,14,9,10,9,13,0,1,0,0,14,12,14,13,1,12,4,11,0,11,0,1,2,2,4,0,0,14,12,1,0,10,1,0,0,0,13,14,6,10,0,0,0,0,0,0,0,0,0,0,0,0,0,0,0,0,0,0,0,0],"split_type":[0,0,0,0,0,0,0,0,0,0,0,0,0,0,0,0,0,0,0,0,0,0,0,0,0,0,0,0,0,0,0,0,0,0,0,0,0,0,0,0,0,0,0,0,0,0,0,0,0,0,0,0,0,0,0,0,0,0,0,0,0],"sum_hessian":[3.547333E2,1.8432798E1,3.363005E2,1.6337929E1,2.0948699E0,1.6955345E1,3.1934515E2,1.4334615E0,1.4904467E1,1.0538181E0,1.0410516E0,9.780798E0,7.174547E0,4.4491706E0,3.14896E2,1.0250247E1,4.654219E0,5.3873568E0,4.393441E0,1.2102569E0,5.9642906E0,1.3217727E0,3.1273978E0,8.238292E1,2.3251308E2,5.2518644E0,4.9983826E0,1.5200005E0,3.1342187E0,2.7885146E0,2.5988421E0,1.4078633E0,2.985578E0,4.789687E0,1.1746032E0,1.0658461E0,2.0615518E0,3.8382053E1,4.4000866E1,1.7830505E2,5.420802E1,3.8100717E0,1.4417928E0,1.1101681E0,2.0240505E0,1.6369342E0,1.1515805E0,1.3469595E0,1.2518826E0,1.145648E0,1.8399299E0,1.1680545E0,3.6216328E0,2.9970186E1,8.411867E0,3.8606117E1,5.3947496E0,1.757452E2,2.5598571E0,5.0642292E1,3.5657277E0],"tree_param":{"num_deleted":"0","num_feature":"15","num_nodes":"61","size_leaf_vector":"1"}},{"base_weights":[3.4696637E-3,-3.5054535E-3,3.5799935E-1,1.1456716E-2,-3.2595563E-1,6.690866E-1,-8.1989266E-2,-9.227232E-3,1.6620031E-1,-6.448408E-1,1.1282781E-1,-5.832968E-3,8.560874E-1,4.0100315E-3,-6.3383806E-1,3.452602E-1,-3.5139155E-1,-1.0100541E-1,-3.065601E-1,-4.1512E-1,2.4949047E-1,3.1746966E-1,4.4829197E-2,-6.4075137E-3,5.1519024E-1,-2.5425E-1,5.7421032E-2,-3.9057478E-1,4.4213173E-1,-5.7076436E-1,2.8624284E-1,-6.363235E-1,2.6243955E-1,-2.534354E-1,6.0972612E-2,-1.7119119E-2,2.1242019E-2,-1.31748E-1,3.315038E-1,-2.1469577E-1,8.080449E-2,2.6993677E-1,7.023049E-2,9.297522E-2,-2.5703064E-1,-1.1836136E-1,2.679161E-1,-2.2164696E-1,-5.4527245E-2],"categories":[],"categories_nodes":[],"categories_segments":[],"categories_sizes":[],"default_left":[0,0,0,0,0,0,0,0,0,0,0,0,0,0,0,0,0,0,0,0,0,0,0,0,0,0,0,0,0,0,0,0,0,0,0,0,0,0,0,0,0,0,0,0,0,0,0,0,0],"id":17,"left_children":[1,3,5,7,9,11,-1,13,15,17,19,-1,21,23,25,27,29,31,-1,33,-1,-1,-1,35,37,-1,-1,39,41,43,45,47,-1,-1,-1,-1,-1,-1,-1,-1,-1,-1,-1,-1,-1,-1,-1,-1,-1],"loss_changes":[8.731343E-1,1.6767118E0,1.5207615E0,1.0652965E0,2.229055E0,6.4158297E-1,0E0,2.434312E0,3.7579808E0,1.7572484E0,3.1296124E0,0E0,3.9028668E-1,1.5423146E0,1.2395501E0,2.2867348E0,1.6434644E0,3.0769053E0,0E0,1.472825E0,0E0,0E0,0E0,1.1157296E0,3.741281E0,0E0,0E0,1.0468199E0,2.329146E0,2.3326058E0,1.746371E0,3.7847877E-2,0E0,0E0,0E0,0E0,0E0,0E0,0E0,0E0,0E0,0E0,0E0,0E0,0E0,0E0,0E0,0E0,0E0],"parents":[2147483647,0,0,1,1,2,2,3,3,4,4,5,5,7,7,8,8,9,9,10,10,12,12,13,13,14,14,15,15,16,16,17,17,19,19,23,23,24,24,27,27,28,28,29,29,30,30,31,31],"right_children":[2,4,6,8,10,12,-1,14,16,18,20,-1,22,24,26,28,30,32,-1,34,-1,-1,-1,36,38,-1,-1,40,42,44,46,48,-1,-1,-1,-1,-1,-1,-1,-1,-1,-1,-1,-1,-1,-1,-1,-1,-1],"split_conditions":[2.83782E0,1.8397967E0,2.7977693E-1,1.1744477E0,5.0337136E-1,-3.9311665E-1,-8.1989266E-2,1.0081104E0,7.064299E-1,4.416952E-2,5.9310323E-1,-5.832968E-3,9.1432446E-1,2.4662704E0,5.422149E-1,-7.6826876E-1,9.727885E-1,-3.2678673E-1,-3.065601E-1,3.4342863E-2,2.4949047E-1,3.1746966E-1,4.4829197E-2,8.8943675E-2,8.945514E-3,-2.5425E-1,5.7421032E-2,2.7977693E-1,-3.710067E-1,-2.0097192E-1,1.5651408E0,-6.215864E-1,2.6243955E-1,-2.534354E-1,6.0972612E-2,-1.7119119E-2,2.1242019E-2,-1.31748E-1,3.315038E-1,-2.1469577E-1,8.080449E-2,2.6993677E-1,7.023049E-2,9.297522E-2,-2.5703064E-1,-1.1836136E-1,2.679161E-1,-2.2164696E-1,-5.4527245E-2],"split_indices":[13,13,14,13,9,12,0,13,9,12,4,0,10,9,14,1,12,12,0,12,0,0,0,4,11,0,0,14,12,11,1,12,0,0,0,0,0,0,0,0,0,0,0,0,0,0,0,0,0],"split_type":[0,0,0,0,0,0,0,0,0,0,0,0,0,0,0,0,0,0,0,0,0,0,0,0,0,0,0,0,0,0,0,0,0,0,0,0,0,0,0,0,0,0,0,0,0,0,0,0,0],"sum_hessian":[3.5157565E2,3.4576312E2,5.812529E0,3.3135236E2,1.4410773E1,3.8536747E0,1.9588543E0,2.9311343E2,3.823891E1,8.07365E0,6.3371234E0,1.0144681E0,2.8392067E0,2.8800342E2,5.110024E0,2.8657764E1,9.581147E0,3.8246887E0,4.248962E0,3.8972025E0,2.439921E0,1.8208256E0,1.018381E0,2.8321906E2,4.7843685E0,4.0376663E0,1.0723575E0,2.9811444E0,2.5676619E1,7.2066364E0,2.3745112E0,2.6944392E0,1.1302495E0,2.0834007E0,1.8138018E0,1.7117867E2,1.12040375E2,1.9250373E0,2.8593314E0,1.9407055E0,1.0404388E0,6.984884E0,1.8691736E1,1.7461569E0,5.4604793E0,1.2839103E0,1.090601E0,1.6883885E0,1.0060506E0],"tree_param":{"num_deleted":"0","num_feature":"15","num_nodes":"49","size_leaf_vector":"1"}},{"base_weights":[1.0955014E-3,-3.667494E-3,4.9179357E-1,1.9886943E-3,-4.339829E-1,6.7297523E-3,2.0430331E-1,-7.131747E-3,4.1869807E-1,-2.2445622E-1,6.1361734E-2,4.450536E-3,-4.188969E-1,6.978434E-1,-1.04467325E-1,-7.257349E-2,5.772829E-2,3.137557E-1,-8.101815E-1,3.1666347E-1,2.1790737E-1,-3.709221E-2,1.3949901E-1,-2.3321778E-1,2.2000603E-2,-1.3025145E-1,2.515967E-1,-2.6724854E-1,-7.204301E-2,-7.555781E-2,1.5665199E-1],"categories":[],"categories_nodes":[],"categories_segments":[],"categories_sizes":[],"default_left":[0,0,0,0,0,0,0,0,0,0,0,0,0,0,0,0,0,0,0,0,0,0,0,0,0,0,0,0,0,0,0],"id":18,"left_children":[1,3,5,7,9,-1,-1,11,13,-1,-1,15,17,19,-1,21,23,25,27,-1,29,-1,-1,-1,-1,-1,-1,-1,-1,-1,-1],"loss_changes":[8.21869E-1,8.490827E-1,2.8494674E-1,1.3140696E0,1.0610409E0,0E0,0E0,1.6165401E0,1.8283594E0,0E0,0E0,1.3595953E0,2.912611E0,7.5918937E-1,0E0,3.7770596E0,2.6090093E0,1.9145259E0,7.680082E-2,0E0,6.633382E-1,0E0,0E0,0E0,0E0,0E0,0E0,0E0,0E0,0E0,0E0],"parents":[2147483647,0,0,1,1,2,2,3,3,4,4,7,7,8,8,11,11,12,12,13,13,15,15,16,16,17,17,18,18,20,20],"right_children":[2,4,6,8,10,-1,-1,12,14,-1,-1,16,18,20,-1,22,24,26,28,-1,30,-1,-1,-1,-1,-1,-1,-1,-1,-1,-1],"split_conditions":[7.278122E0,3.8664289E0,3.7581915E-1,1.8106649E0,9.249418E-1,6.7297523E-3,2.0430331E-1,1.285789E0,9.531352E-1,-2.2445622E-1,6.1361734E-2,-1.7447357E-1,-1.0323032E-1,5.2130174E-2,-1.04467325E-1,1.518664E0,-1.3516212E0,2.3262665E-1,7.966781E-1,3.1666347E-1,1.1531919E0,-3.709221E-2,1.3949901E-1,-2.3321778E-1,2.2000603E-2,-1.3025145E-1,2.515967E-1,-2.6724854E-1,-7.204301E-2,-7.555781E-2,1.5665199E-1],"split_indices":[14,14,12,14,13,0,0,14,12,0,0,12,12,9,0,9,1,9,9,0,0,0,0,0,0,0,0,0,0,0,0],"split_type":[0,0,0,0,0,0,0,0,0,0,0,0,0,0,0,0,0,0,0,0,0,0,0,0,0,0,0,0,0,0,0],"sum_hessian":[3.4987625E2,3.474958E2,2.3804662E0,3.4396994E2,3.5258603E0,1.0053102E0,1.3751562E0,3.375646E2,6.4053283E0,2.247942E0,1.2779182E0,3.2929135E2,8.273237E0,4.7620907E0,1.6432378E0,1.3449248E2,1.9479889E2,2.9492033E0,5.324034E0,2.0413244E0,2.720766E0,1.2352779E2,1.0964686E1,2.6782374E0,1.9212065E2,1.2875E0,1.6617033E0,4.171161E0,1.152873E0,1.1372167E0,1.5835495E0],"tree_param":{"num_deleted":"0","num_feature":"15","num_nodes":"31","size_leaf_vector":"1"}}]},"name":"gbtree"},"learner_model_param":{"base_score":"1.519174E-1","boost_from_average":"1","num_class":"0","num_feature":"15","num_target":"1"},"objective":{"name":"binary:logistic","reg_loss_param":{"scale_pos_weight":"1"}}},"version":[3,0,0]}